\data\
ngram 1=11502
ngram 2=30839
ngram 3=42714

\1-grams:
-4.539998	<unk>	0
0	<s>	-1.6425973
-0.94820666	</s>	0
-4.4376664	What	-0.07642895
-3.1988368	position	-0.21350326
-3.019127	does	-0.19393243
-2.2472792	the	-0.2598296
-3.1178424	player	-0.17364019
-2.4956188	who	-0.5456046
-2.8606062	played	-0.35762298
-1.8325131	for	-0.26424998
-4.2522335	butler	-0.07642895
-4.4376664	cc	-0.07642895
-4.4376664	(ks)	-0.07642895
-3.1178424	play?	-1.21965
-3.467486	school	-0.14312826
-2.4741168	did	-0.26035476
-2.6227522	number	-0.3210121
-3.467486	21	-0.114982575
-2.8215513	play	-0.33361462
-3.5591562	for?	-0.7936813
-4.4376664	Who	-0.07642895
-1.7351266	is	-0.1805651
-2.1979308	that	-0.53734034
-4.2522335	wears	-0.07642895
-4.0893774	42?	-0.3165601
-3.943758	guard	-0.07642895
-3.943758	toronto	-0.07642895
-1.8726139	in	-0.30197906
-4.4376664	1996-97?	-0.07642895
-2.91495	are	-0.26766682
-3.467486	all	-0.13281658
-1.5890007	of	-0.16802923
-3.7479262	players	-0.1012596
-2.2207322	on	-0.39289653
-4.4376664	Westchester	-0.07642895
-3.391833	High	-0.20277542
-3.7479262	School	-0.07642895
-3.467486	club	-0.14173584
-3.1771286	team?	-1.1616582
-3.8348963	school/club	-0.34596157
-2.794405	team	-0.33331025
-4.4376664	Amir	-0.07642895
-4.0893774	Johnson	-0.1556342
-3.8348963	on?	-0.5384088
-3.8348963	nationality	-0.1470312
-4.4376664	Fresno	-0.07642895
-3.467486	State	-0.09491762
-4.4376664	Trey	-0.07642895
-4.4376664	When	-0.07642895
-4.4376664	Jacques	-0.07642895
-4.4376664	Chirac	-0.07642895
-4.4376664	stop	-0.07642895
-3.1367192	being	-0.08373022
-2.5136213	a	-0.18644035
-4.4376664	G8	-0.07642895
-4.4376664	leader?	-0.07642895
-4.4376664	Prime	-0.07642895
-4.4376664	Minister	-0.07642895
-4.2522335	Italy	-0.07642895
-3.467486	take	-0.39968047
-3.943758	office?	-0.44149882
-3.8348963	English	-0.07642895
-2.8923903	name	-0.3131502
-3.6755004	country	-0.17587332
-3.2984805	whose	-0.08557485
-3.8348963	official	-0.12759647
-4.2522335	native	-0.07642895
-4.2522335	language	-0.1556342
-4.2522335	Dutch	-0.07642892
-4.4376664	Papiamento?	-0.07642895
-3.099752	or	-0.07642895
-4.0893774	languages	-0.1556342
-4.4376664	spoken	-0.07642895
-3.467486	capital	-0.20265087
-3.156454	city	-0.18283911
-4.2522335	Canberra?	-0.20140772
-3.8348963	local	-0.180105
-4.4376664	given	-0.07642895
-2.707271	to	-0.18361251
-4.4376664	Anguilla?	-0.07642895
-3.7479262	St.	-0.180105
-4.4376664	John's?	-0.07642895
-3.5109067	The	-0.08203438
-3.1771286	episode	-0.15806206
-1.8886608	with	-0.44271055
-3.5109067	production	-0.22641766
-3.5591562	code	-0.15099664
-4.4376664	9abx02	-0.07642895
-2.0617597	was	-0.23340017
-3.5591562	originally	-0.28224352
-3.467486	aired	-0.35619625
-2.2230797	what	-0.44591773
-3.6755004	date?	-0.6845369
-3.943758	amount	-0.44149882
-4.4376664	trees,	-0.07642895
-4.4376664	require	-0.07642895
-4.2522335	replacement	-0.07642895
-1.8511002	when	-0.37204292
-4.4376664	prevailing	-0.07642895
-4.4376664	types,	-0.07642895
-3.467486	%	-0.25894412
-4.4376664	pine	-0.07642895
-3.7479262	—	-0.07642895
-4.4376664	29.37	-0.07642895
-4.2522335	poplar	-0.20140772
-4.4376664	26.12	-0.07642895
-4.2522335	acer	-0.20140772
-4.4376664	negundo	-0.07642895
-4.4376664	13.2?	-0.07642895
-3.3584359	district	-0.17768183
-4.4376664	leninsky?	-0.07642895
-3.1771286	total	-0.1429121
-4.2522335	trees	-0.20140772
-2.8215513	smaller	-1.5115367
-3.1988368	than	-0.14851601
-4.4376664	150817.6878461314	-0.07642895
-1.6149025	and	-0.4948612
-3.943758	old	-0.07642895
-4.4376664	1,928	-0.07642895
-4.4376664	(1.89%)?	-0.07642895
-4.4376664	motovilikhinsky?	-0.07642895
-4.4376664	30.22	-0.07642895
-4.4376664	tilia	-0.07642895
-4.4376664	18.6	-0.07642895
-4.4376664	15.23?	-0.07642895
-3.3274243	value	-0.25558853
-4.4376664	"since	-0.07642895
-4.4376664	beginning	-0.07642895
-3.8348963	big	-0.07642895
-4.4376664	12"	-0.07642895
-4.4376664	synonymous	-0.07642895
-4.4376664	its'	-0.07642895
-4.4376664	category,	-0.07642895
-4.2522335	Ames	-0.07642895
-4.4376664	values?	-0.07642895
-3.8348963	what's	-0.10524593
-4.4376664	the u.s.	-0.07642895
-3.5591562	open	-0.13562375
-3.5591562	cup	-0.07642895
-4.4376664	status for	-0.07642895
-3.8348963	regular	-0.2833608
-4.4376664	season of	-0.07642895
-4.2522335	4th,	-0.07642895
-4.2522335	atlantic	-0.20140772
-3.5109067	division	-0.09346711
-3.4280143	how	-0.5843908
-4.0893774	many	-0.09346711
-3.6755004	not	-0.1433957
-4.4376664	qualify	-0.07642895
-3.6755004	u.s.	-0.26676175
-3.8348963	2003	-0.12219975
-2.7688558	which	-0.19247101
-3.1771286	round	-0.14455843
-4.4376664	semifinals	-0.07642895
-3.943758	playoffs	-0.07642895
-3.2458072	season	-0.15476768
-4.2522335	1st,	-0.07642895
-3.391833	1st	-0.18268274
-4.4376664	the aggregate where 1st	-0.07642895
-4.2522335	leg is	-0.07642895
-4.2522335	3–2	-0.07642895
-4.4376664	the competition where aggregate is	-0.07642895
-4.4376664	4–7	-0.07642895
-4.4376664	the competition where 1st	-0.07642895
-4.2522335	4-1	-0.07642895
-4.4376664	(h)	-0.07642895
-4.4376664	the 1st	-0.07642895
-4.4376664	leg where opponents is	-0.07642895
-4.4376664	galatasaray	-0.07642895
-4.4376664	Which	-0.07642895
-4.4376664	Rd	-0.07642895
-3.4280143	took	-0.481135
-3.156454	place	-0.21541138
-2.518241	at	-0.22035559
-4.2522335	Indianapolis	-0.07642892
-4.2522335	500?	-0.20140772
-3.6134439	teams	-0.12219979
-2.7145083	won	-0.45566508
-4.2522335	Bobby	-0.07642895
-4.4376664	Rahal	-0.07642895
-3.6134439	their	-0.09346711
-3.391833	winning	-0.15220219
-4.0893774	driver?	-0.3165601
-4.0893774	fastest	-0.12219975
-4.4376664	lap	-0.07642895
-2.990648	time	-0.39571664
-4.4376664	Escort	-0.07642895
-4.4376664	Radar	-0.07642895
-4.4376664	Warning	-0.07642895
-4.4376664	200?	-0.07642895
-4.2522335	report	-0.07642895
-3.467486	there	-0.23127022
-4.2522335	porsche	-0.07642895
-3.5591562	north	-0.13562375
-4.4376664	america?	-0.07642895
-4.4376664	rnds	-0.07642895
-2.6862562	were	-0.27183023
-4.4376664	phoenix	-0.07642895
-3.8348963	international	-0.07642895
-4.4376664	raceway?	-0.07642895
-3.6755004	pole	-0.3399052
-4.4376664	rnd	-0.07642895
-4.4376664	equalling	-0.07642895
-3.391833	12?	-0.9533822
-4.4376664	race,	-0.07642895
-3.943758	los	-0.13443807
-4.4376664	angeles	-0.07642895
-4.4376664	times	-0.07642895
-3.943758	500	-0.13443807
-4.2522335	who?	-0.20140772
-3.943758	races	-0.07642892
-4.4376664	johnny	-0.07642895
-4.4376664	rutherford	-0.07642895
-1.9345987	has	-0.50248086
-3.5591562	won?	-0.7936813
-4.0893774	license	-0.07642895
-3.7479262	award	-0.17703022
-2.9387462	date	-0.41488773
-3.2984805	North	-0.18244748
-4.0893774	East	-0.07642895
-4.2522335	England?	-0.20140772
-3.5591562	percentage	-0.24706446
-4.4376664	growth	-0.07642895
-4.4376664	2000-2008	-0.07642895
-4.4376664	ethiopia?	-0.07642895
-4.4376664	Provide	-0.07642895
-3.943758	me	-0.20417956
-4.2522335	names	-0.1556342
-4.2522335	villages	-0.07642895
-4.2522335	(German)	-0.1556342
-4.4376664	76.3%	-0.07642895
-4.2522335	Slovenes	-0.20140772
-4.4376664	1951.	-0.07642895
-3.6134439	village	-0.15282416
-3.4280143	part	-0.18709044
-4.4376664	(Slovenian)	-0.07642895
-4.4376664	sele	-0.07642895
-4.4376664	srednji	-0.07642895
-4.4376664	kot.	-0.07642895
-4.4376664	borovnica.	-0.07642895
-2.6662116	where	-0.24772623
-4.4376664	96.9%	-0.07642895
-2.7688558	score	-0.3725627
-2.9387462	game	-0.22320342
-3.467486	November	-0.109862275
-2.390421	had	-0.4382307
-3.3274243	high	-0.28866678
-3.5109067	assists	-0.21756805
-3.8348963	they	-0.10446565
-2.9387462	against	-0.15589458
-3.7479262	San	-0.07642892
-4.4376664	Antonio?	-0.07642895
-3.4280143	scored	-0.08538628
-3.7479262	most	-0.10446565
-2.9511518	points	-0.2614505
-3.391833	4?	-0.9533822
-4.4376664	Where	-0.07642895
-3.7479262	20?	-0.61759007
-3.943758	U.S.	-0.10446565
-3.943758	airdate	-0.24299519
-3.3274243	8	-0.1647519
-3.5591562	august	-0.07642895
-3.1988368	2008	-0.17069952
-3.7479262	also	-0.2470518
-4.0893774	canadian	-0.07642892
-4.4376664	airdates	-0.07642895
-4.4376664	what?	-0.07642895
-4.2522335	For	-0.07642895
-4.4376664	episode(s)	-0.07642895
-2.9387462	4	-0.18267922
-3.467486	april	-0.07642895
-4.2522335	2008,	-0.07642895
-4.4376664	names?	-0.07642895
-3.467486	directed	-0.29718652
-4.4376664	"Great	-0.07642895
-4.4376664	Sexpectations	-0.07642895
-4.4376664	(2)"?	-0.07642895
-2.6794713	from	-0.16083673
-3.7479262	2004	-0.07642895
-4.2522335	CFL	-0.07642895
-3.6134439	draft	-0.30504373
-3.6134439	attended	-0.12989637
-4.4376664	Wilfrid	-0.07642895
-4.4376664	Laurier?	-0.07642895
-4.0893774	Christian	-0.07642892
-4.4376664	Leibl-Cote	-0.07642895
-4.4376664	47?	-0.07642895
-4.2522335	leagues	-0.07642892
-2.6597304	have	-0.3872267
-4.0893774	Raiders	-0.1556342
-2.10437	as	-0.5642593
-4.0893774	mascot?	-0.3165601
-4.4376664	Galena	-0.07642895
-3.1178424	in?	-1.21965
-3.4280143	state	-0.1262143
-4.4376664	Lancers	-0.07642895
-4.2522335	mascot	-0.07642895
-4.0893774	located?	-0.3165601
-4.4376664	miners	-0.07642895
-3.3584359	located	-0.32865512
-3.6134439	tournament	-0.14090614
-3.8348963	dated	-0.07642892
-4.4376664	nov	-0.07642895
-3.7479262	3,	-0.1142284
-3.4280143	2002?	-0.9186201
-3.8348963	margin	-0.22868566
-4.2522335	victory	-0.108622886
-4.4376664	mar	-0.07642895
-4.0893774	28,	-0.07642892
-3.7479262	2004?	-0.61759007
-3.8348963	par	-0.15408644
-3.4280143	may	-0.07642892
-3.8348963	4,	-0.07642895
-3.943758	2003?	-0.44149882
-4.2522335	runner	-0.07642892
-4.4376664	ups	-0.07642895
-4.4376664	pat	-0.07642895
-4.4376664	hurst	-0.07642895
-4.4376664	juli	-0.07642895
-4.4376664	inkster?	-0.07642895
-3.5109067	actor	-0.12566139
-3.019127	first	-0.25077868
-4.4376664	"ambush"	-0.07642895
-4.4376664	the character with fate being	-0.07642895
-4.4376664	deceased:	-0.07642895
-4.0893774	knife	-0.07642892
-4.4376664	wound	-0.07642895
-4.4376664	the actor with character being	-0.07642895
-4.0893774	judge	-0.07642892
-4.4376664	joseph	-0.07642895
-4.4376664	ratner	-0.07642895
-4.4376664	the first	-0.07642892
-4.4376664	epbeingode with final	-0.07642895
-4.4376664	epbeingode being	-0.07642895
-4.4376664	"rio"	-0.07642895
-3.6755004	second	-0.1142284
-4.0893774	semi	-0.13443807
-3.6755004	finalist	-0.098711655
-3.2984805	2007?	-1.0435588
-4.4376664	List	-0.07642895
-3.8348963	scores	-0.07642895
-3.5591562	games	-0.11783363
-4.0893774	Miami	-0.07642892
-3.099752	listed	-0.3060248
-4.4376664	Semi	-0.07642895
-4.4376664	Embry-Riddle	-0.07642895
-3.2984805	made	-0.21755977
-3.3274243	it	-0.3089911
-4.4376664	slot,	-0.07642895
-4.4376664	list	-0.07642895
-4.4376664	runners	-0.07642895
-4.4376664	up.	-0.07642895
-3.7479262	final	-0.112948895
-3.5591562	2007	-0.14912531
-4.4376664	Belgian	-0.07642895
-3.467486	Grand	-0.57980156
-4.4376664	Prix?	-0.07642895
-4.2522335	successor	-0.12219975
-4.4376664	seated	-0.07642895
-4.4376664	vacator	-0.07642892
-4.4376664	charles	-0.07642895
-3.943758	e.	-0.07642895
-4.4376664	chamberlain	-0.07642895
-4.4376664	(r)?	-0.07642895
-4.4376664	chester	-0.07642895
-4.4376664	holifield	-0.07642895
-4.2522335	(d)?	-0.20140772
-4.0893774	California	-0.07642895
-4.0893774	10th?	-0.3165601
-3.6755004	21,	-0.07642895
-4.2522335	1973?	-0.20140772
-4.0893774	reason	-0.3165601
-4.0893774	change	-0.07642895
-3.943758	died	-0.07642895
-3.467486	January	-0.07642892
-3.6755004	1,	-0.2728354
-4.0893774	1974?	-0.3165601
-4.4376664	routes	-0.07642895
-4.2522335	"replaced	-0.20140772
-2.752622	by	-0.122791454
-3.6755004	US	-0.108622886
-4.2522335	81"	-0.07642895
-4.2522335	remarks	-0.07642895
-4.4376664	section?	-0.07642895
-4.4376664	junctions	-0.07642895
-4.4376664	bsi-35"	-0.07642895
-3.943758	unit	-0.07642895
-3.5591562	length	-0.2875358
-3.5109067	used	-0.2384785
-4.2522335	route	-0.07642892
-3.8348963	us	-0.10446565
-3.5591562	population	-0.17587332
-4.2522335	areas	-0.07642895
-4.4376664	83"	-0.07642895
-4.4376664	Give	-0.07642895
-4.2522335	kickoff	-0.20140772
-4.4376664	CBS	-0.07642895
-4.4376664	Louis	-0.07642895
-4.4376664	Cardinals.	-0.07642895
-4.4376664	Find	-0.07642895
-4.4376664	result(s)	-0.07642895
-3.1367192	record	-0.29711658
-4.4376664	2-13.	-0.07642895
-4.4376664	vault	-0.07642895
-4.4376664	56.635?	-0.07642895
-3.943758	floor	-0.07642895
-4.0893774	exercise	-0.07642892
-4.4376664	9.287?	-0.07642895
-4.4376664	the margin where runner(s)-up is	-0.07642895
-4.0893774	phil	-0.07642892
-4.4376664	mickelson	-0.07642895
-4.4376664	the runner(s)-up where 54	-0.07642895
-4.2522335	holes is	-0.07642895
-4.0893774	tied	-0.07642892
-3.6134439	lead	-0.11783363
-4.4376664	and margin is	-0.07642895
-3.1367192	5	-0.13667494
-3.8348963	strokes	-0.12219975
-4.4376664	the championship where 54	-0.07642895
-2.8505085	1	-0.26321757
-4.2522335	shot	-0.07642895
-4.4376664	and runner(s)-up is	-0.07642895
-3.943758	chris	-0.07642895
-4.4376664	dimarco	-0.07642895
-4.4376664	the championship where winning	-0.07642895
-4.2522335	score is	-0.07642895
-4.4376664	−12	-0.07642895
-4.4376664	(74-66-65-71=276)	-0.07642895
-4.4376664	the 54	-0.07642895
-4.4376664	holes where winning	-0.07642895
-4.2522335	−19	-0.07642895
-4.4376664	(67-66-67-69=269)	-0.07642895
-4.4376664	the title where original	-0.07642895
-3.3584359	air	-0.3660727
-4.4376664	date is	-0.07642895
-4.4376664	january18,2009	-0.07642895
-4.4376664	the original	-0.07642895
-4.4376664	date where written	-0.07642895
-4.4376664	by is	-0.07642895
-4.4376664	iain	-0.07642895
-4.4376664	morris	-0.07642895
-3.2713456	&	-0.08866685
-4.2522335	damon	-0.07642895
-4.4376664	beesley	-0.07642895
-4.4376664	Allied	-0.07642895
-4.4376664	Force	-0.07642895
-4.2522335	targetted	-0.07642895
-4.4376664	Woensdrecht?	-0.07642895
-4.4376664	allied	-0.07642895
-4.2522335	target	-0.07642895
-3.5591562	group	-0.086897306
-4.4376664	ghent/sint-denijs-westrem?	-0.07642895
-3.7479262	entry	-0.33100307
-4.4376664	UK	-0.07642895
-4.2522335	Albums	-0.20140772
-3.8348963	Top	-0.07642895
-4.4376664	75	-0.07642895
-4.2522335	chart?	-0.20140772
-4.4376664	exit	-0.07642895
-3.943758	100	-0.07642895
-4.4376664	Chart?	-0.07642895
-4.4376664	the permanence	-0.07642895
-4.4376664	body where purity is	-0.07642895
-4.4376664	rudra	-0.07642895
-4.4376664	apprehension	-0.07642895
-4.4376664	body where penance is	-0.07642895
-4.4376664	undifferenced	-0.07642895
-4.4376664	the constancy where permanence	-0.07642895
-4.4376664	body is	-0.07642895
-4.4376664	meditation	-0.07642895
-4.4376664	body where constancy is	-0.07642895
-4.4376664	interestedness	-0.07642895
-3.5591562	original	-0.13880715
-3.943758	dates	-0.07642895
-3.221687	title	-0.25996232
-4.4376664	"firestorm"?	-0.07642895
-4.4376664	624?	-0.07642895
-3.6134439	written	-0.40477687
-4.0893774	Karen	-0.07642892
-4.4376664	Felix	-0.07642895
-4.4376664	Don	-0.07642895
-4.4376664	Woodard?	-0.07642895
-4.4376664	the species	-0.07642895
-4.4376664	world with peruvian	-0.07642895
-4.4376664	amazon	-0.07642895
-3.943758	vs.	-0.07642895
-4.4376664	peru	-0.07642895
-4.4376664	(percent) 	-0.07642895
-4.4376664	63	-0.07642895
-4.0893774	forward	-0.07642895
-3.2713456	10	-0.13931632
-3.6755004	belong	-0.4860332
-4.0893774	to?	-0.3165601
-3.6134439	height	-0.17703022
-4.4376664	Hartford?	-0.07642895
-3.4280143	years	-0.17235044
-4.4376664	LaSalle	-0.07642895
-4.4376664	Rockets?	-0.07642895
-3.6755004	35	-0.10446565
-4.4376664	6-6?	-0.07642895
-4.4376664	Rockets	-0.07642892
-4.4376664	1986-92?	-0.07642895
-4.0893774	went	-0.20417956
-4.0893774	Southern	-0.07642892
-4.0893774	University?	-0.3165601
-4.4376664	How	-0.07642895
-4.2522335	tall	-0.07642895
-4.0893774	jones,	-0.07642892
-4.2522335	major	-0.07642895
-4.2522335	jones?	-0.20140772
-4.2522335	sent	-0.20140772
-3.5109067	third	-0.10640073
-4.2522335	island	-0.1556342
-3.1178424	week	-0.22281112
-3.082385	1?	-1.2544122
-3.8348963	member	-0.13528468
-4.4376664	arrived	-0.07642895
-3.943758	main	-0.12518054
-3.1367192	6	-0.115818694
-4.2522335	island?	-0.20140772
-4.4376664	who's	-0.07642895
-4.4376664	tribe	-0.07642895
-4.4376664	shark	-0.07642895
-3.5109067	14	-0.108622886
-4.4376664	arrive	-0.07642895
-4.4376664	sikhs	-0.07642895
-4.4376664	Japan?	-0.07642895
-4.2522335	evening	-0.20140772
-4.4376664	gown	-0.07642895
-4.0893774	swimsuit	-0.13443807
-4.4376664	9.61?	-0.07642895
-4.0893774	interview	-0.12219975
-4.4376664	9.74?	-0.07642895
-3.0496051	an	-0.19483414
-4.4376664	9.40	-0.07642895
-3.5109067	average	-0.19712172
-4.4376664	9.44?	-0.07642895
-4.4376664	9.67?	-0.07642895
-4.4376664	9.57?	-0.07642895
-4.4376664	Hawaii?	-0.07642895
-3.5591562	Game	-0.12978461
-4.2522335	50?	-0.20140772
-3.943758	49?	-0.44149882
-4.4376664	philips	-0.07642895
-4.2522335	arena	-0.07642895
-4.4376664	18,227?	-0.07642895
-3.943758	records	-0.07642895
-3.6755004	w	-0.07642895
-4.4376664	98–91	-0.07642895
-3.7479262	l	-0.07642895
-4.4376664	109–116	-0.07642895
-2.881535	2	-0.1980705
-4.0893774	ot	-0.07642892
-3.8348963	visitor	-0.13443807
-4.4376664	25–18	-0.07642895
-4.0893774	visitors	-0.13443807
-4.0893774	leading	-0.10446565
-4.0893774	scorer	-0.13443807
-4.2522335	roy	-0.20140772
-4.4376664	:	-0.07642895
-3.6134439	25	-0.09663806
-4.4376664	the home team	-0.07642895
-4.4376664	where streak is	-0.07642895
-4.4376664	l3	-0.07642895
-4.4376664	and leading	-0.07642895
-4.4376664	scorer is	-0.07642895
-3.6755004	23	-0.07642895
-4.4376664	the attendance where score is	-0.07642895
-4.4376664	92–101	-0.07642895
-4.4376664	the leading	-0.07642895
-4.4376664	scorer where home is	-0.07642895
-4.4376664	charlotte	-0.07642895
-4.4376664	bobcats	-0.07642895
-4.4376664	the score where record is	-0.07642895
-4.4376664	0–2	-0.07642895
-3.3584359	Name	-0.26716718
-3.5109067	location	-0.1349766
-3.6134439	june	-0.07642895
-3.4280143	series	-0.17703022
-4.4376664	authors	-0.07642895
-4.4376664	#25?	-0.07642895
-4.2522335	features	-0.07642895
-3.8348963	writer	-0.20338583
-3.6755004	Michael	-0.098711655
-4.4376664	Poryes?	-0.07642895
-4.2522335	somerset	-0.1556342
-3.1178424	year	-0.2247074
-3.3274243	2009?	-1.0155301
-4.4376664	bristol	-0.07642895
-4.4376664	n.	-0.07642895
-4.4376664	som	-0.07642895
-4.4376664	ashcott	-0.07642895
-4.4376664	shapwick?	-0.07642895
-4.2522335	glos	-0.20140772
-4.4376664	wilts	-0.07642895
-4.4376664	lansdown?	-0.07642895
-4.4376664	gloucester	-0.07642895
-4.4376664	winget?	-0.07642895
-4.4376664	the preliminaries where evening	-0.07642895
-4.4376664	gown is	-0.07642895
-4.4376664	8.988	-0.07642895
-4.4376664	the swimsuit where average is	-0.07642895
-4.4376664	8.670	-0.07642895
-4.4376664	the evening	-0.07642895
-4.4376664	gown where preliminaries is	-0.07642895
-4.4376664	8.977	-0.07642895
-4.4376664	the preliminaries where state is	-0.07642895
-3.5109067	south	-0.18546961
-4.4376664	dakota	-0.07642895
-4.4376664	gown where state is	-0.07642895
-3.943758	men's	-0.12219975
-3.8348963	singles	-0.2148188
-4.4376664	marina	-0.07642895
-4.4376664	yakusheva	-0.07642895
-4.2522335	elena	-0.07642895
-4.4376664	shimko	-0.07642895
-4.0893774	womens	-0.13443807
-4.4376664	imam	-0.07642895
-4.4376664	sodikin	-0.07642895
-4.4376664	irawan	-0.07642895
-4.4376664	andi	-0.07642895
-4.4376664	tandaputra?	-0.07642895
-4.4376664	naoko	-0.07642895
-4.4376664	fukuman	-0.07642895
-4.4376664	kurumi	-0.07642895
-4.4376664	yonao?	-0.07642895
-4.4376664	marcus	-0.07642895
-4.4376664	ellis	-0.07642895
-4.4376664	gabrielle	-0.07642895
-4.4376664	white?	-0.07642895
-4.4376664	mens	-0.07642892
-3.1988368	2008?	-1.1404688
-4.4376664	gdp	-0.07642895
-3.6134439	(	-0.10446565
-4.4376664	bn	-0.07642895
-4.0893774	)	-0.07642892
-3.943758	capital?	-0.44149882
-3.6755004	area	-0.15408644
-4.4376664	(sq.	-0.07642895
-4.4376664	mi.)	-0.07642895
-4.4376664	mi.)?	-0.07642895
-4.0893774	toll	-0.1556342
-4.4376664	light	-0.07642895
-4.2522335	vehicles	-0.07642895
-4.4376664	plaza	-0.07642895
-4.2522335	heavy	-0.07642895
-4.2522335	axles	-0.07642895
-4.4376664	r87.00?	-0.07642895
-4.4376664	3/4	-0.07642895
-4.4376664	Verkeerdevlei	-0.07642895
-4.4376664	plaza?	-0.07642895
-4.4376664	Carousel	-0.07642895
-3.6755004	between	-0.07642895
-4.2522335	bela	-0.07642895
-4.4376664	modimolle?	-0.07642895
-4.4376664	told	-0.07642895
-4.4376664	r20.50?	-0.07642895
-4.4376664	inclination	-0.07642895
-4.4376664	alt	-0.07642895
-4.4376664	OPS-1584?	-0.07642895
-4.2522335	SS	-0.20140772
-4.0893774	paul	-0.07642892
-4.4376664	konerko	-0.07642895
-4.4376664	base?	-0.07642895
-3.3584359	2nd	-0.13282102
-4.2522335	base	-0.1556342
-4.4376664	nomar	-0.07642895
-4.4376664	garciaparra	-0.07642895
-4.4376664	RF	-0.07642895
-4.4376664	SP	-0.07642895
-4.4376664	vicente	-0.07642895
-4.4376664	padilla?	-0.07642895
-4.2522335	jim	-0.07642895
-4.4376664	lefebvre	-0.07642895
-4.4376664	2nd,	-0.07642895
-4.4376664	willie	-0.07642895
-4.2522335	davis	-0.07642895
-4.4376664	CF,	-0.07642895
-4.2522335	don	-0.07642895
-4.4376664	drysdale	-0.07642895
-4.4376664	SP.	-0.07642895
-4.0893774	top	-0.07642895
-4.4376664	gf	-0.07642895
-4.0893774	41?	-0.3165601
-3.467486	goals	-0.1534248
-4.4376664	2005-06	-0.07642895
-3.467486	season?	-0.88083154
-3.6755004	manager	-0.07642895
-3.1771286	rank	-0.24903776
-3.5591562	16?	-0.7936813
-4.4376664	What's	-0.07642892
-3.5591562	order	-0.18308498
-3.5109067	song	-0.129779
-3.943758	performed	-0.17336896
-4.4376664	Rickie	-0.07642895
-3.8348963	Lee	-0.07642895
-4.2522335	Jones?	-0.20140772
-3.2984805	result	-0.2148142
-2.990648	3	-0.19414835
-3.5591562	episode?	-0.7936813
-3.6755004	one	-0.13443807
-4.0893774	songs	-0.12219975
-3.6755004	artist	-0.17703022
-3.3274243	#	-0.20293954
-3.943758	seats	-0.10446565
-3.6755004	election	-0.14784461
-4.2522335	65?	-0.20140772
-4.4376664	strongs	-0.07642895
-4.2522335	words	-0.20140772
-4.4376664	compounded	-0.07642895
-4.2522335	english	-0.07642895
-4.4376664	spelling	-0.07642892
-4.4376664	jonadab?	-0.07642895
-4.4376664	strong	-0.07642895
-4.4376664	transliteration	-0.07642895
-4.4376664	yowyariyb?	-0.07642895
-3.8348963	word	-0.12759647
-4.4376664	trasliteration	-0.07642895
-4.0893774	y	-0.1556342
-4.0893774	e	-0.07642892
-4.4376664	howram?	-0.07642895
-4.4376664	jehojakin?	-0.07642895
-4.4376664	hebrew	-0.07642895
-4.4376664	יוֹחָנָן?	-0.07642895
-4.4376664	Kaluvanchikudy	-0.07642895
-3.8348963	town	-0.07642895
-4.0893774	DS	-0.1556342
-4.2522335	division?	-0.20140772
-3.7479262	S.	-0.07642892
-4.4376664	L.	-0.07642895
-4.2522335	M.	-0.07642895
-4.4376664	Haneefa	-0.07642895
-4.4376664	divisional	-0.07642895
-4.4376664	secretary?	-0.07642895
-4.4376664	secretary	-0.07642895
-4.4376664	H.	-0.07642895
-4.4376664	Muzammil?	-0.07642895
-3.8348963	millions	-0.2470518
-3.3584359	viewers	-0.20783012
-4.0893774	watched	-0.20417956
-4.0893774	Rob	-0.07642892
-4.4376664	Bailey	-0.07642895
-4.4376664	Pam	-0.07642895
-4.4376664	Veasey?	-0.07642895
-4.4376664	Jenn	-0.07642895
-4.2522335	eliminated?	-0.20140772
-3.7479262	vote	-0.098711655
-4.4376664	tally	-0.07642895
-3.4280143	May	-0.12034718
-3.467486	5,	-0.11787194
-3.467486	2005?	-0.88083154
-3.8348963	received	-0.108622886
-4.2522335	reward	-0.07642895
-3.3274243	finish	-0.21605124
-4.4376664	"3rd	-0.07642895
-3.8348963	voted	-0.17336896
-3.8348963	out	-0.1142284
-3.4280143	day	-0.12421567
-4.4376664	8"?	-0.07642895
-4.4376664	"10th	-0.07642895
-3.4280143	3rd	-0.12747651
-4.4376664	jury	-0.07642895
-4.4376664	30"?	-0.07642895
-4.2522335	short	-0.07642895
-4.2522335	stem	-0.20140772
-4.4376664	garbitzen?	-0.07642895
-4.4376664	perfect	-0.07642895
-4.4376664	pozten?	-0.07642895
-4.0893774	try	-0.3165601
-3.943758	bonus	-0.14011699
-4.4376664	430	-0.07642895
-3.943758	losing	-0.26678032
-4.2522335	96	-0.07642895
-3.943758	51	-0.07642895
-3.6134439	tries	-0.24107693
-4.4376664	87	-0.07642895
-3.6134439	27	-0.14272808
-4.4376664	rear	-0.07642895
-4.2522335	sight	-0.07642895
-4.4376664	Cole	-0.07642895
-3.2458072	model	-0.09950082
-3.8348963	no.	-0.07642892
-4.4376664	735?	-0.07642895
-4.4376664	Colt	-0.07642895
-3.5591562	numbers	-0.12219975
-4.4376664	models	-0.07642892
-3.2713456	named	-0.07642895
-4.4376664	GAU-5A/A,	-0.07642895
-3.5591562	no	-0.102765396
-4.4376664	bayonet	-0.07642895
-4.4376664	lug,	-0.07642895
-4.0893774	case	-0.07642895
-4.4376664	deflector	-0.07642895
-4.2522335	stock	-0.07642895
-4.4376664	generation?	-0.07642895
-3.2458072	type	-0.27151188
-4.4376664	muzzle	-0.07642895
-4.4376664	devices	-0.07642895
-4.4376664	hand	-0.07642895
-4.4376664	guards?	-0.07642895
-4.0893774	Clubs	-0.07642892
-3.7479262	involved	-0.180105
-3.5109067	8,	-0.1012596
-3.7479262	would	-0.2470518
-3.8348963	you	-0.07642892
-4.4376664	find	-0.07642892
-4.2522335	winners	-0.13443807
-3.943758	previous	-0.180105
-3.943758	round?	-0.44149882
-4.0893774	From	-0.07642892
-4.4376664	round;	-0.07642895
-3.4280143	new	-0.17179391
-3.943758	entries	-0.13443807
-3.943758	this	-0.13443807
-3.8348963	be	-0.07642895
-4.2522335	found?	-0.20140772
-4.4376664	During	-0.07642895
-3.943758	phase	-0.07642895
-4.4376664	portion	-0.07642895
-3.467486	having	-0.2817518
-3.4280143	16	-0.08866685
-4.0893774	clubs	-0.07642892
-4.4376664	involved;	-0.07642895
-4.0893774	shown	-0.13443807
-3.7479262	12,	-0.07642895
-4.4376664	this?	-0.07642895
-4.4376664	submitted	-0.07642895
-4.4376664	miehen	-0.07642895
-4.4376664	työ?	-0.07642895
-4.2522335	movie	-0.07642892
-4.4376664	lebanon?	-0.07642895
-4.4376664	orphanage?	-0.07642895
-4.2522335	football	-0.07642892
-3.4280143	stadium	-0.11215482
-3.943758	enrollment	-0.12219975
-4.4376664	43579?	-0.07642895
-4.2522335	dismissals	-0.07642895
-3.8348963	Peter	-0.07642892
-4.4376664	McGlashan	-0.07642895
-3.082385	have?	-1.2544122
-4.0893774	ranks	-0.07642892
-3.943758	In	-0.09762424
-3.6134439	incumbent	-0.090221114
-3.943758	Steve	-0.07642895
-4.4376664	Chabot?	-0.07642895
-4.0893774	Incumbent	-0.07642895
-4.4376664	Deborah	-0.07642895
-4.2522335	Pryce	-0.20140772
-4.0893774	party?	-0.3165601
-3.943758	candidates	-0.16663331
-4.4376664	Saxby	-0.07642895
-4.4376664	Chambliss	-0.07642895
-4.4376664	incumbent?	-0.07642895
-3.3584359	party	-0.18939608
-3.943758	William	-0.07642895
-4.0893774	J.	-0.07642892
-4.4376664	Jefferson?	-0.07642895
-3.8348963	results	-0.1012596
-3.6755004	Jim	-0.108622886
-4.4376664	McCrery?	-0.07642895
-3.467486	John	-0.089397594
-4.4376664	Cooksey	-0.07642895
-4.2522335	represent?	-0.20140772
-4.4376664	Porter	-0.07642895
-3.6134439	elected	-0.21140651
-3.5109067	Illinois	-0.07642895
-3.3584359	7?	-0.98556685
-4.4376664	Jerry	-0.07642895
-4.2522335	Costello	-0.07642895
-4.4376664	ruben	-0.07642895
-4.4376664	hinojosa	-0.07642895
-3.099752	from?	-1.2373788
-4.4376664	nick	-0.07642895
-4.4376664	lampson	-0.07642895
-4.4376664	doc	-0.07642895
-4.4376664	hastings	-0.07642895
-3.943758	(r)	-0.07642895
-4.4376664	53.3%	-0.07642895
-4.2522335	jay	-0.07642895
-4.4376664	inslee	-0.07642895
-4.0893774	(d)	-0.07642892
-4.4376664	46.7%	-0.07642895
-4.4376664	districts	-0.07642895
-4.4376664	Curt	-0.07642895
-4.4376664	Weldon	-0.07642895
-4.2522335	hold?	-0.20140772
-3.943758	champions	-0.07642895
-3.391833	driver	-0.19817439
-4.4376664	hiroki	-0.07642895
-4.4376664	yoshimoto	-0.07642895
-3.5109067	2005	-0.1433957
-3.943758	)?	-0.44149882
-4.2522335	drivers	-0.07642895
-4.2522335	Last	-0.07642895
-3.943758	september	-0.07642892
-3.6134439	22,	-0.17179391
-3.5109067	2013	-0.12969014
-4.4376664	gianmarco	-0.07642895
-4.4376664	raimondo?	-0.07642895
-3.7479262	last	-0.1470312
-3.467486	September	-0.10501859
-4.4376664	vladimir	-0.07642895
-4.4376664	arabadzhiev	-0.07642895
-3.3274243	2010	-0.2175431
-4.4376664	Gianmarco	-0.07642895
-4.4376664	Raimondo?	-0.07642895
-4.2522335	georgia	-0.07642895
-4.2522335	jack	-0.07642895
-3.7479262	thomas	-0.07642895
-4.4376664	brinkley	-0.07642895
-4.4376664	districk	-0.07642895
-4.4376664	larry	-0.07642895
-4.4376664	mcdonald	-0.07642895
-4.4376664	the result with district	-0.07642895
-3.8348963	florida	-0.12219975
-3.2984805	7	-0.07642895
-4.4376664	the district	-0.07642892
-4.4376664	with result being	-0.07642895
-3.467486	seat	-0.3024289
-4.0893774	democratic	-0.07642895
-4.2522335	gain	-0.07642895
-4.4376664	elected with district being	-0.07642895
-4.4376664	the candidates with incumbent being	-0.07642895
-4.4376664	fuqua	-0.07642895
-4.4376664	newt	-0.07642895
-4.4376664	gingrich	-0.07642895
-4.4376664	59.1%	-0.07642895
-4.4376664	dock	-0.07642895
-4.2522335	h.	-0.07642895
-4.4376664	40.9%?	-0.07642895
-4.2522335	tim	-0.07642892
-4.2522335	lee	-0.07642895
-4.4376664	hall	-0.07642895
-4.4376664	illinois	-0.07642895
-3.391833	15	-0.15856984
-4.4376664	abner	-0.07642895
-3.8348963	j.	-0.07642895
-4.4376664	mikva	-0.07642895
-3.8348963	Kentucky	-0.07642895
-4.0893774	voting	-0.1556342
-3.7479262	district?	-0.61759007
-3.1771286	2?	-1.1616582
-4.4376664	Brent	-0.07642895
-4.4376664	Spence	-0.07642895
-3.2984805	5?	-1.0435588
-4.0893774	Frank	-0.07642892
-4.4376664	Chelf	-0.07642895
-4.4376664	running.	-0.07642895
-4.4376664	jamie	-0.07642895
-4.2522335	l.	-0.07642895
-4.4376664	whitten	-0.07642895
-4.4376664	mississippi	-0.07642895
-3.3274243	6?	-1.0155301
-4.2522335	1941?	-0.20140772
-4.4376664	w.	-0.07642895
-4.0893774	arthur	-0.07642892
-4.4376664	winstead?	-0.07642895
-3.6134439	bigger	-0.7425288
-4.4376664	1939.0?	-0.07642895
-4.4376664	Arkansas	-0.07642892
-4.4376664	Brooks	-0.07642895
-4.4376664	Hays	-0.07642895
-4.2522335	kind	-0.20140772
-4.2522335	Alabama	-0.07642892
-3.3584359	lost	-0.13149275
-4.4376664	renomination	-0.07642895
-4.4376664	first?	-0.07642895
-3.943758	E.	-0.07642895
-4.2522335	Miller	-0.07642895
-4.0893774	Claude	-0.1556342
-4.4376664	Fuller	-0.07642895
-4.4376664	elected?	-0.07642895
-3.943758	ran	-0.07642895
-4.2522335	s.	-0.07642895
-4.4376664	mcmillan?	-0.07642895
-3.8348963	candidate	-0.098711655
-4.2522335	carolina	-0.07642895
-3.1988368	3?	-1.1404688
-4.4376664	with incumbent being	-0.07642895
-3.8348963	richard	-0.07642895
-4.4376664	welch	-0.07642895
-4.4376664	the districtwith party being	-0.07642895
-4.4376664	with candidates being	-0.07642895
-4.2522335	harry	-0.07642895
-4.2522335	lane	-0.07642895
-4.4376664	englebright	-0.07642895
-4.4376664	unopposed	-0.07642895
-4.4376664	the party with incumbent being	-0.07642895
-3.7479262	william	-0.1142284
-4.4376664	evans	-0.07642895
-3.8348963	featuring	-0.07642895
-4.2522335	madison	-0.07642895
-4.4376664	whittington?	-0.07642895
-4.4376664	francis	-0.07642895
-4.4376664	stevenson	-0.07642895
-4.4376664	political	-0.07642895
-4.4376664	burton	-0.07642895
-4.4376664	sweet?	-0.07642895
-4.2522335	"The	-0.07642895
-4.4376664	Family	-0.07642895
-4.4376664	Lawyer"?	-0.07642895
-4.2522335	wrote	-0.108622886
-4.4376664	1.83	-0.07642895
-3.004654	million	-0.316702
-3.6755004	viewers?	-0.6845369
-3.8348963	Jeff	-0.07642895
-4.4376664	Melman?	-0.07642895
-4.2522335	launch	-0.07642895
-4.4376664	Driade?	-0.07642895
-3.943758	median	-0.2833608
-4.2522335	household	-0.1556342
-3.7479262	income	-0.31353423
-4.4376664	sacramento?	-0.07642895
-3.4280143	per	-0.23034774
-4.4376664	capita	-0.07642895
-4.4376664	shasta?	-0.07642895
-4.2522335	family	-0.20140772
-4.4376664	riverside	-0.07642895
-4.4376664	butte?	-0.07642895
-3.5591562	got	-0.13562375
-4.4376664	239	-0.07642895
-3.7479262	against?	-0.61759007
-4.0893774	column	-0.07642895
-4.4376664	"lost"	-0.07642895
-3.8348963	62	-0.07642895
-4.2522335	info	-0.07642895
-4.4376664	available	-0.07642895
-4.2522335	56.5	-0.07642895
-4.0893774	kg	-0.07642892
-4.4376664	weight?	-0.07642895
-4.4376664	railway	-0.07642895
-4.4376664	stakes	-0.07642895
-3.8348963	race?	-0.5384088
-4.4376664	incument	-0.07642895
-4.4376664	terry	-0.07642895
-4.4376664	kilgore	-0.07642895
-3.8348963	san	-0.07642895
-4.4376664	antonio?	-0.07642895
-4.0893774	opposing	-0.24299519
-4.4376664	53?	-0.07642895
-4.4376664	rebounder	-0.07642895
-4.2522335	charlotte?	-0.20140772
-3.3274243	attendance	-0.2990266
-4.4376664	jersey?	-0.07642895
-4.4376664	staples	-0.07642895
-3.6134439	center	-0.07642895
-4.4376664	18,176?	-0.07642895
-4.4376664	the turing	-0.07642895
-4.4376664	complete with numeral	-0.07642895
-4.4376664	system being	-0.07642895
-4.2522335	decimal	-0.07642895
-4.4376664	the computing	-0.07642895
-4.4376664	mechanbeingm with name being	-0.07642895
-4.2522335	atanasoff–berry	-0.20140772
-4.4376664	computer	-0.07642895
-4.4376664	(us)	-0.07642895
-4.4376664	the name with first	-0.07642895
-4.2522335	operational being	-0.07642895
-3.4280143	march	-0.12219979
-4.2522335	1945	-0.07642895
-4.4376664	mechanbeingm with first	-0.07642895
-3.4280143	february	-0.09222765
-4.2522335	1944	-0.07642895
-4.4376664	complete with name being	-0.07642895
-4.4376664	operational with programming being	-0.07642895
-4.4376664	programmable—single	-0.07642895
-4.2522335	purpose	-0.07642895
-4.2522335	5.5	-0.07642895
-4.2522335	mark	-0.07642895
-4.4376664	security?	-0.07642895
-4.4376664	environment	-0.07642895
-3.467486	rating	-0.25755948
-4.0893774	overall	-0.12219975
-4.4376664	4.7?	-0.07642895
-4.4376664	migration	-0.07642895
-4.4376664	trade	-0.07642895
-4.4376664	5.7?	-0.07642895
-4.4376664	PA	-0.07642895
-3.8348963	skip	-0.1433957
-4.4376664	Colleen	-0.07642895
-4.4376664	PF	-0.07642895
-4.4376664	77?	-0.07642895
-4.4376664	the won with try	-0.07642895
-4.2522335	bonus being	-0.07642895
-4.4376664	the club with losing	-0.07642895
-4.4376664	the points with tries	-0.07642895
-4.4376664	for being	-0.07642895
-4.2522335	64	-0.07642895
-4.4376664	the won with points	-0.07642895
-4.4376664	against being	-0.07642895
-4.4376664	597	-0.07642895
-3.5591562	transfer	-0.17701644
-4.2522335	fee	-0.12219975
-4.4376664	€20m?	-0.07642895
-4.2522335	EU	-0.07642895
-3.6134439	status	-0.18338802
-4.4376664	ESP?	-0.07642895
-4.4376664	nme	-0.07642895
-4.0893774	billy	-0.07642892
-4.4376664	vaughn?	-0.07642895
-4.4376664	259	-0.07642895
-2.963922	points?	-1.3709178
-4.4376664	citv	-0.07642895
-3.8348963	station	-0.13443807
-4.0893774	edmonton	-0.1556342
-3.8348963	outcome	-0.111201085
-3.6755004	match	-0.13226001
-4.4376664	1989?	-0.07642895
-3.7479262	opponents	-0.1470312
-4.0893774	1984?	-0.3165601
-4.4376664	Maksim	-0.07642895
-4.4376664	Botin?	-0.07642895
-4.4376664	Botin's	-0.07642895
-3.2458072	position?	-1.0947113
-4.4376664	Roman	-0.07642895
-4.4376664	Bragin's	-0.07642895
-4.4376664	the w-l-d with position being	-0.07642895
-4.4376664	the club	-0.07642895
-4.4376664	(city/town) with goals	-0.07642895
-4.4376664	for/against being	-0.07642895
-4.4376664	14-2	-0.07642895
-4.4376664	the goals	-0.07642895
-4.4376664	for/against with w-l-d being	-0.07642895
-4.4376664	3-1-1	-0.07642895
-4.0893774	college/junior/club	-0.3165601
-4.4376664	(league)	-0.07642895
-4.0893774	Seattle	-0.07642895
-4.4376664	Thunderbirds	-0.07642895
-4.2522335	(WHL)?	-0.20140772
-3.221687	pick	-0.22077388
-4.4376664	130?	-0.07642895
-4.2522335	mon	-0.20140772
-3.467486	26	-0.09346711
-4.2522335	fri	-0.20140772
-3.6134439	30	-0.1142284
-4.2522335	18'	-0.07642892
-4.4376664	28.27	-0.07642895
-4.4376664	122.599mph?	-0.07642895
-4.4376664	tims	-0.07642895
-4.4376664	wed	-0.07642895
-3.5591562	28	-0.09491762
-4.0893774	17'	-0.07642892
-4.4376664	58.34	-0.07642895
-4.4376664	125.960mph?	-0.07642895
-4.4376664	numbr	-0.07642895
-4.2522335	19'	-0.07642892
-4.4376664	02.890	-0.07642895
-4.4376664	118.847mph?	-0.07642895
-3.2458072	win	-0.18848556
-4.4376664	2007-08?	-0.07642895
-4.0893774	finals	-0.13443807
-3.2984805	10?	-1.0435588
-4.4376664	1985-86?	-0.07642895
-4.4376664	2012-13?	-0.07642895
-4.4376664	1993-94	-0.07642895
-3.6755004	32	-0.10446565
-4.4376664	starter	-0.07642895
-3.8348963	left	-0.07642892
-3.943758	end	-0.07642892
-3.8348963	extra	-0.22868566
-3.943758	famous	-0.24299519
-3.2984805	finished	-0.26256928
-4.0893774	9th	-0.07642895
-4.2522335	exited	-0.07642892
-3.3584359	13	-0.14912531
-3.8348963	entered	-0.07642892
-4.2522335	page	-0.07642895
-4.2522335	teleplay	-0.1556342
-3.7479262	director	-0.16769727
-4.4376664	Bailey?	-0.07642895
-3.8348963	Richard	-0.07642895
-4.2522335	Price	-0.07642895
-4.4376664	Shill?	-0.07642895
-4.4376664	eastern	-0.07642895
-3.943758	standard	-0.07642895
-3.2984805	held	-0.20319942
-4.2522335	denver	-0.07642895
-4.4376664	broncos?	-0.07642895
-4.2522335	unix	-0.20140772
-4.4376664	shell	-0.07642895
-4.4376664	PowerShell	-0.07642895
-4.4376664	(Cmdlet)	-0.07642895
-4.4376664	select-string?	-0.07642895
-3.943758	values	-0.20417956
-4.4376664	CMD.EXE	-0.07642895
-3.4280143	/	-0.07642895
-4.4376664	COMMAND.COM	-0.07642895
-4.4376664	echo?	-0.07642895
-4.4376664	If	-0.07642895
-4.4376664	Powershell	-0.07642895
-4.4376664	(alias)	-0.07642895
-4.4376664	cpi,	-0.07642895
-4.4376664	copy,	-0.07642895
-4.4376664	cp,	-0.07642895
-4.0893774	corresponding	-0.07642892
-4.4376664	descriptions.	-0.07642895
-4.4376664	cmd.exe	-0.07642895
-4.4376664	command.com	-0.07642895
-4.0893774	type,	-0.07642892
-3.467486	associated	-0.54660225
-4.4376664	powershell	-0.07642895
-4.4376664	(cmdlet)?	-0.07642895
-3.6755004	county	-0.1142284
-4.4376664	2053	-0.07642895
-4.4376664	households?	-0.07642895
-4.4376664	71?	-0.07642895
-4.4376664	$98,090?	-0.07642895
-4.4376664	Woodside?	-0.07642895
-4.4376664	Fayette	-0.07642895
-3.943758	County?	-0.44149882
-4.0893774	common	-0.12219975
-4.4376664	Galliate	-0.07642895
-4.4376664	population?	-0.07642895
-4.4376664	(km2)	-0.07642895
-4.4376664	38.38?	-0.07642895
-4.4376664	103.02?	-0.07642895
-4.4376664	47.3	-0.07642895
-4.2522335	km^2?	-0.20140772
-3.943758	density	-0.29563245
-4.4376664	20.4	-0.07642895
-3.4280143	ranked	-0.090221114
-4.4376664	common?	-0.07642895
-4.4376664	Chieri	-0.07642895
-4.4376664	density?	-0.07642895
-4.4376664	the economics score	-0.07642895
-4.4376664	with education being	-0.07642895
-4.4376664	92.0	-0.07642895
-4.4376664	the health score	-0.07642895
-4.4376664	with justice being	-0.07642895
-4.4376664	80.7	-0.07642895
-4.4376664	the rank for	-0.07642895
-4.4376664	iceland	-0.07642895
-4.4376664	the country with health being	-0.07642895
-4.4376664	91.4	-0.07642895
-4.4376664	the economics	-0.07642895
-4.4376664	score with justice being	-0.07642895
-4.4376664	90.8	-0.07642895
-3.2713456	9	-0.14013472
-3.6134439	opponent?	-0.7425288
-4.4376664	results?	-0.07642895
-3.943758	chicago	-0.20417956
-4.2522335	black	-0.07642892
-4.4376664	hawks	-0.07642895
-4.4376664	128	-0.07642895
-4.2522335	wing	-0.07642895
-4.4376664	Burmese	-0.07642895
-4.2522335	term	-0.07642892
-4.4376664	Thursday?	-0.07642895
-4.0893774	cardinal	-0.3165601
-4.0893774	direction	-0.20417956
-4.4376664	Venus?	-0.07642895
-4.2522335	west?	-0.20140772
-4.4376664	planet	-0.07642895
-4.2522335	south?	-0.20140772
-4.4376664	Yachts	-0.07642895
-3.943758	sail	-0.07642895
-4.4376664	6952?	-0.07642895
-4.0893774	states	-0.07642895
-3.943758	countries	-0.13443807
-4.4376664	corrected	-0.07642895
-4.4376664	3:13:40:05?	-0.07642895
-4.4376664	skippers	-0.07642895
-4.4376664	3:15:07:27?	-0.07642895
-4.4376664	yacht	-0.07642895
-4.4376664	Yendys?	-0.07642895
-4.4376664	courtside	-0.07642895
-4.2522335	reporter	-0.07642895
-4.2522335	2009-10?	-0.20140772
-4.0893774	studio	-0.12219975
-3.8348963	host	-0.111201085
-4.2522335	2006-07?	-0.20140772
-4.0893774	analysts	-0.07642895
-4.4376664	2008-09?	-0.07642895
-4.0893774	current	-0.12219975
-3.391833	venue	-0.18473336
-4.2522335	Masters	-0.07642895
-3.5591562	tournament?	-0.7936813
-4.2522335	Rome	-0.07642895
-3.6755004	country?	-0.6845369
-4.2522335	venues	-0.07642895
-4.4376664	Mason,	-0.07642895
-4.2522335	Ohio?	-0.20140772
-4.2522335	tournaments	-0.07642895
-4.2522335	Madrid	-0.07642895
-4.2522335	Arena?	-0.20140772
-3.943758	Womens	-0.13443807
-4.0893774	Doubles	-0.1556342
-4.4376664	2000/2001?	-0.07642895
-3.5591562	doubles	-0.15408644
-4.4376664	2008/2009?	-0.07642895
-3.5109067	David	-0.07642895
-4.4376664	Nutter	-0.07642895
-4.2522335	draw	-0.07642895
-4.2522335	masters	-0.07642895
-4.4376664	fought	-0.07642895
-4.4376664	hapkido	-0.07642895
-4.0893774	style?	-0.3165601
-4.4376664	master	-0.07642895
-4.2522335	using	-0.07642895
-4.4376664	Brazilian	-0.07642895
-4.4376664	jiu-jitsu	-0.07642895
-3.6755004	air?	-0.6845369
-4.4376664	Netanya?	-0.07642895
-4.4376664	martial	-0.07642895
-4.4376664	arts	-0.07642895
-4.2522335	style	-0.07642895
-4.4376664	Rio	-0.07642895
-3.7479262	de	-0.07642892
-4.4376664	Janeiro?	-0.07642895
-4.4376664	74804	-0.07642895
-4.2522335	it?	-0.20140772
-3.467486	October	-0.10034791
-3.6755004	25,	-0.12219975
-4.0893774	1981	-0.07642892
-3.4280143	record?	-0.9186201
-3.8348963	18,	-0.07642895
-4.4376664	site?	-0.07642895
-4.4376664	age	-0.07642895
-4.4376664	band	-0.07642895
-3.2713456	under	-0.16934022
-3.4280143	20	-0.11783363
-4.2522335	southern	-0.07642895
-4.4376664	lakota	-0.07642895
-4.4376664	híŋhaŋna	-0.07642895
-4.4376664	santee	-0.07642895
-4.4376664	sisseton	-0.07642895
-4.4376664	wičháša	-0.07642895
-4.4376664	gloss	-0.07642895
-4.4376664	haŋȟ’áŋna	-0.07642895
-4.2522335	2004,	-0.07642895
-4.4376664	daniela	-0.07642895
-4.4376664	kressig	-0.07642895
-3.943758	2006,	-0.07642895
-3.5591562	competition	-0.15282416
-4.4376664	roland	-0.07642895
-4.4376664	hilti	-0.07642895
-4.4376664	kilian	-0.07642895
-4.4376664	pfister,	-0.07642895
-4.0893774	2001,	-0.07642892
-4.4376664	armand	-0.07642895
-4.4376664	jehle	-0.07642895
-4.4376664	michaela	-0.07642895
-4.4376664	ritter,	-0.07642895
-4.0893774	mixed	-0.14272808
-4.0893774	1987	-0.07642892
-4.4376664	rhel	-0.07642895
-3.3584359	release	-0.22987825
-4.2522335	scientific	-0.1556342
-4.4376664	linux	-0.07642895
-4.4376664	3.0.4	-0.07642895
-4.2522335	delay	-0.07642895
-4.4376664	5.10	-0.07642895
-4.4376664	28d	-0.07642895
-4.4376664	Venezuela's	-0.07642895
-3.943758	rank?	-0.44149882
-4.2522335	5th	-0.07642895
-3.7479262	runner-up	-0.1142284
-3.6755004	ranking	-0.13562375
-3.2458072	0	-0.14623739
-4.4376664	days	-0.07642895
-4.0893774	rounds	-0.07642892
-4.4376664	66-67-70-67	-0.07642895
-4.4376664	recorded?	-0.07642895
-4.2522335	hosts	-0.07642895
-3.943758	championship?	-0.44149882
-4.0893774	2nd?	-0.3165601
-4.4376664	WHAT	-0.07642895
-3.943758	YEAR	-0.07642895
-3.943758	WAS	-0.07642895
-4.4376664	IT	-0.07642895
-3.943758	WHEN	-0.24299519
-3.7479262	THE	-0.1262143
-4.0893774	SCORE	-0.12219975
-4.4376664	WINNING	-0.07642895
-4.4376664	IN	-0.07642895
-4.4376664	1922?	-0.07642895
-4.4376664	the cancelable with bubbles being	-0.07642895
-3.8348963	yes	-0.12219975
-4.4376664	the bubbles with attribute being	-0.07642895
-4.4376664	onpopuphidden	-0.07642895
-4.4376664	the type with description being	-0.07642895
-4.4376664	fires	-0.07642895
-4.4376664	overflow	-0.07642895
-4.4376664	changes.	-0.07642895
-4.4376664	the attribute with cancelable being	-0.07642895
-4.4376664	"sokka's	-0.07642895
-4.4376664	master"?	-0.07642895
-4.4376664	318?	-0.07642895
-3.7479262	john	-0.1012596
-4.4376664	o'bryan	-0.07642895
-4.4376664	ethan	-0.07642895
-4.4376664	spaulding?	-0.07642895
-4.4376664	"the	-0.07642895
-4.4376664	beach"?	-0.07642895
-4.4376664	segments	-0.07642895
-4.4376664	involve	-0.07642895
-4.4376664	wood	-0.07642895
-4.4376664	boring	-0.07642895
-4.4376664	augers	-0.07642895
-3.467486	shows	-0.14591883
-4.4376664	beet	-0.07642895
-4.4376664	sugar,	-0.07642895
-2.8923903	before	-0.15119569
-4.4376664	rolled	-0.07642895
-4.4376664	wafers	-0.07642895
-3.7479262	episodes	-0.09663806
-3.943758	best	-0.07642895
-4.4376664	uncle	-0.07642895
-4.4376664	boonmee	-0.07642895
-3.943758	can	-0.07642895
-4.4376664	recall	-0.07642895
-3.6134439	his	-0.12566139
-4.4376664	past	-0.07642895
-4.4376664	lives	-0.07642895
-4.4376664	mother	-0.07642895
-4.4376664	sammo	-0.07642895
-4.4376664	hung	-0.07642895
-4.4376664	ip	-0.07642895
-4.2522335	man	-0.07642895
-3.943758	supporting	-0.13443807
-4.2522335	actress	-0.1556342
-4.2522335	sun	-0.07642895
-4.4376664	honglei	-0.07642895
-4.4376664	mongol	-0.07642895
-4.4376664	strokes?	-0.07642895
-4.4376664	At	-0.07642895
-4.4376664	66-72-64-65=267?	-0.07642895
-4.4376664	record(s)	-0.07642895
-4.4376664	.464?	-0.07642895
-4.4376664	paulistano	-0.07642895
-4.4376664	7.78	-0.07642895
-3.3584359	race	-0.12751967
-4.4376664	Indy	-0.07642895
-4.4376664	F3	-0.07642895
-4.4376664	Challenge	-0.07642895
-3.6134439	circuit	-0.12969014
-4.0893774	Martin	-0.07642892
-4.4376664	Dwight	-0.07642895
-4.2522335	Howard	-0.07642892
-4.4376664	extortion	-0.07642895
-4.4376664	theft	-0.07642895
-4.4376664	rates	-0.07642895
-3.391833	United	-0.21607213
-4.4376664	Nations	-0.07642895
-4.4376664	Observer	-0.07642895
-4.2522335	Mission	-0.07642895
-4.4376664	Uganda-Rwanda	-0.07642895
-4.4376664	active?	-0.07642895
-4.2522335	cover	-0.07642895
-3.8348963	Bob	-0.07642892
-4.4376664	Vila	-0.07642895
-4.4376664	Questions?	-0.07642895
-4.4376664	Kymberly	-0.07642895
-4.4376664	Paige	-0.07642895
-4.4376664	Centerfold?	-0.07642895
-4.4376664	Kalin	-0.07642895
-4.4376664	Olson	-0.07642895
-4.4376664	centerfold	-0.07642895
-3.8348963	model?	-0.5384088
-4.4376664	3-97?	-0.07642895
-4.2522335	pictorial	-0.20140772
-4.2522335	done	-0.07642895
-4.4376664	marilyn	-0.07642895
-4.4376664	monroe?	-0.07642895
-3.943758	subject	-0.1142284
-4.4376664	1-97?	-0.07642895
-4.2522335	issue	-0.07642892
-4.4376664	Fergie	-0.07642895
-4.2522335	answered	-0.20140772
-4.2522335	"20	-0.07642895
-4.4376664	questions"?	-0.07642895
-4.4376664	issue's	-0.07642895
-4.4376664	pictorials	-0.07642895
-4.4376664	pmoy	-0.07642895
-3.5591562	-	-0.07642895
-4.4376664	sara	-0.07642895
-4.4376664	jean	-0.07642895
-4.4376664	underwood?	-0.07642895
-4.4376664	pictorals	-0.07642895
-4.4376664	issues	-0.07642895
-4.4376664	lindsey	-0.07642895
-4.4376664	roeper	-0.07642895
-4.4376664	model.	-0.07642895
-4.4376664	kimberly	-0.07642895
-4.4376664	bell	-0.07642895
-3.1771286	,	-0.086897306
-4.4376664	bunnies	-0.07642895
-4.4376664	playboy	-0.07642895
-3.6134439	club?	-0.7425288
-4.4376664	amanda	-0.07642895
-4.4376664	beard,	-0.07642895
-4.4376664	reby	-0.07642895
-4.2522335	sky	-0.07642895
-4.4376664	girls	-0.07642895
-4.4376664	montauk	-0.07642895
-3.5109067	?	-0.8394388
-4.4376664	questions	-0.07642895
-4.4376664	10-07?	-0.07642895
-4.0893774	wickets	-0.07642892
-4.0893774	overs	-0.3165601
-4.4376664	bowled	-0.07642895
-4.4376664	31.2	-0.07642895
-4.4376664	maaidens	-0.07642895
-4.4376664	On	-0.07642895
-4.4376664	Nazareth?	-0.07642895
-4.4376664	Rick	-0.07642895
-4.4376664	Mears	-0.07642895
-4.0893774	drive?	-0.3165601
-4.2522335	raced	-0.07642895
-3.4280143	19?	-0.9186201
-3.467486	engine	-0.17440635
-4.4376664	Galles	-0.07642895
-3.8348963	Racing	-0.07642895
-3.8348963	use?	-0.5384088
-4.4376664	Washington?	-0.07642895
-4.4376664	municipalities	-0.07642895
-4.4376664	Finnmark	-0.07642895
-4.4376664	populations	-0.07642895
-4.4376664	6187.0?	-0.07642895
-4.4376664	city/town	-0.07642895
-4.4376664	Halden	-0.07642895
-3.943758	municipality	-0.13443807
-4.4376664	24421?	-0.07642895
-4.4376664	cities/towns	-0.07642895
-4.4376664	Horten?	-0.07642895
-4.4376664	Moss?	-0.07642895
-4.2522335	choice	-0.07642892
-4.4376664	hollywood	-0.07642895
-4.4376664	andrew	-0.07642895
-4.4376664	lloyd	-0.07642895
-4.4376664	webber	-0.07642895
-4.4376664	beatles	-0.07642895
-4.2522335	safe	-0.07642895
-4.4376664	Drew	-0.07642895
-4.4376664	Z.	-0.07642895
-4.4376664	Greenberg?	-0.07642895
-4.4376664	Magic	-0.07642895
-4.4376664	Necklace"	-0.07642895
-4.2522335	by?	-0.20140772
-3.8348963	Season	-0.13562375
-3.8348963	17,	-0.07642895
-4.4376664	1955	-0.07642895
-4.4376664	Jackson	-0.07642895
-4.4376664	Gillis	-0.07642895
-4.2522335	Originally	-0.07642895
-4.2522335	1955?	-0.20140772
-4.4376664	Continental	-0.07642895
-4.4376664	Airlines	-0.07642895
-3.943758	Arena	-0.07642895
-4.4376664	13,755?	-0.07642895
-3.943758	television	-0.2833608
-3.6755004	service	-0.10446565
-4.2522335	italian	-0.07642895
-4.4376664	n°is	-0.07642895
-2.963922	greater	-1.0492775
-4.4376664	856.0?	-0.07642895
-4.4376664	italy	-0.07642895
-4.2522335	english?	-0.20140772
-3.7479262	united	-0.14272808
-4.2522335	kingdom	-0.07642895
-4.4376664	n°	-0.07642895
-4.4376664	854.0?	-0.07642895
-4.4376664	dar	-0.07642895
-4.4376664	germany?	-0.07642895
-4.2522335	musical	-0.07642892
-4.0893774	guest	-0.07642895
-4.4376664	elle	-0.07642895
-4.4376664	macpherson	-0.07642895
-4.4376664	Oilers	-0.07642895
-3.6755004	21?	-0.6845369
-4.4376664	rafał	-0.07642895
-4.4376664	mroczek	-0.07642895
-4.4376664	aneta	-0.07642895
-4.4376664	piotrowska?	-0.07642895
-4.2522335	hanja	-0.07642895
-4.4376664	朔州	-0.07642895
-4.4376664	province?	-0.07642895
-4.4376664	尙州	-0.07642895
-4.4376664	hangul	-0.07642895
-4.2522335	symbol	-0.07642895
-4.4376664	良州?	-0.07642895
-4.0893774	province	-0.12219975
-4.4376664	"sangju"?	-0.07642895
-3.943758	modern	-0.22868566
-4.4376664	equivalents	-0.07642895
-4.4376664	"hanju"?	-0.07642895
-4.0893774	passengers	-0.13443807
-3.5591562	(in	-0.24870294
-4.4376664	millions)	-0.07642892
-4.2522335	flew	-0.1556342
-4.4376664	Seoul	-0.07642895
-3.5591562	2012?	-0.7936813
-4.4376664	6.6+	-0.07642895
-3.4280143	2011	-0.14120899
-4.2522335	distance	-0.07642895
-4.4376664	1075km?	-0.07642895
-4.4376664	through	-0.07642895
-4.2522335	along	-0.20140772
-4.4376664	1075km	-0.07642895
-3.943758	long	-0.12219975
-4.4376664	6.640	-0.07642895
-4.4376664	Okinawa	-0.07642895
-3.6134439	city?	-0.7425288
-3.943758	2011,	-0.07642895
-4.4376664	7.6+	-0.07642895
-4.4376664	passengers?	-0.07642895
-4.4376664	Will	-0.07642895
-3.7479262	Power	-0.07642892
-4.0893774	both	-0.07642892
-4.2522335	lap?	-0.20140772
-4.4376664	Chicagoland?	-0.07642895
-4.4376664	sanctioned	-0.07642895
-3.7479262	event	-0.16475861
-4.4376664	fayette	-0.07642895
-4.0893774	speedway?	-0.3165601
-4.4376664	lincoln,	-0.07642895
-4.2522335	illinois?	-0.20140772
-4.4376664	farmer	-0.07642895
-4.4376664	programs	-0.07642895
-4.4376664	highland	-0.07642895
-4.4376664	charleston,	-0.07642895
-3.8348963	eliminated	-0.07642892
-3.6134439	conference	-0.111201085
-4.4376664	12-6	-0.07642895
-4.4376664	seed	-0.07642895
-4.4376664	24-9	-0.07642895
-4.4376664	Sun	-0.07642895
-4.4376664	Belt	-0.07642895
-4.2522335	conference,	-0.07642895
-4.4376664	Oral	-0.07642895
-4.4376664	Roberts	-0.07642895
-3.6134439	college?	-0.7425288
-4.0893774	qualifying	-0.07642892
-4.4376664	schools	-0.07642895
-4.4376664	Patriot	-0.07642895
-4.0893774	conference?	-0.3165601
-4.4376664	UMBC?	-0.07642895
-4.4376664	Belmont	-0.07642895
-4.4376664	vessel	-0.07642895
-4.4376664	K-223?	-0.07642895
-4.4376664	four?	-0.07642895
-4.4376664	five?	-0.07642895
-4.4376664	Ida	-0.07642895
-4.4376664	Corr	-0.07642895
-3.4280143	win?	-0.9186201
-4.4376664	mentor	-0.07642895
-4.4376664	two?	-0.07642895
-4.4376664	Mohamed	-0.07642895
-4.2522335	Ali	-0.07642895
-3.943758	third?	-0.44149882
-3.7479262	affiliation	-0.13443807
-4.4376664	Erie,	-0.07642895
-4.2522335	Pennsylvania?	-0.20140772
-4.0893774	founded	-0.12219975
-4.2522335	1846?	-0.20140772
-4.4376664	Canton,	-0.07642895
-3.8348963	New	-0.12759647
-4.4376664	York?	-0.07642895
-4.2522335	ground	-0.07642895
-4.2522335	essendon	-0.07642892
-4.4376664	saturday	-0.07642895
-3.7479262	1995	-0.1142284
-3.3584359	away	-0.23819311
-4.4376664	Fremantle	-0.07642895
-4.4376664	receive	-0.07642895
-3.082385	home	-0.2892859
-4.2522335	Port	-0.07642895
-4.4376664	Adelaide?	-0.07642895
-4.2522335	h	-0.07642895
-4.0893774	c	-0.07642892
-3.8348963	max	-0.07642895
-4.4376664	99	-0.07642895
-4.4376664	grizzles	-0.07642895
-3.943758	maryland	-0.07642895
-4.2522335	kevin	-0.07642895
-4.0893774	edwards	-0.1556342
-4.2522335	blue	-0.07642895
-4.0893774	Justin	-0.1556342
-4.4376664	Shaw	-0.07642895
-4.0893774	Western	-0.1556342
-3.6755004	college	-0.12430172
-4.4376664	Jean-Nicolas	-0.07642895
-4.4376664	Carriere	-0.07642895
-4.4376664	ktm-vmc	-0.07642895
-4.4376664	equipment?	-0.07642895
-4.4376664	hte	-0.07642895
-4.0893774	republican	-0.07642892
-4.4376664	jeaff	-0.07642895
-4.4376664	beatty	-0.07642895
-4.2522335	34%?	-0.20140772
-4.2522335	democrat	-0.07642895
-4.4376664	kerry	-0.07642895
-4.4376664	63%	-0.07642895
-3.5591562	poll	-0.25516334
-3.8348963	source	-0.14591883
-4.4376664	rasmussen	-0.07642895
-4.2522335	reports?	-0.20140772
-4.2522335	administered	-0.07642892
-3.7479262	diameter	-0.27285632
-4.2522335	feature	-0.12219975
-4.2522335	found	-0.07642895
-3.8348963	1997?	-0.5384088
-4.0893774	latitude	-0.13443807
-4.4376664	67.5n,	-0.07642895
-4.4376664	diameter?	-0.07642895
-4.4376664	vaidilute	-0.07642895
-4.4376664	rupes?	-0.07642895
-4.4376664	71.1e,	-0.07642895
-4.4376664	feature's	-0.07642895
-4.4376664	origin?	-0.07642895
-4.0893774	longitude	-0.13443807
-4.4376664	321.9e,	-0.07642895
-4.0893774	km	-0.07642892
-4.4376664	Colette	-0.07642895
-4.0893774	Patera?	-0.3165601
-4.4376664	Razia	-0.07642895
-4.2522335	origin	-0.13443807
-4.4376664	Keller	-0.07642895
-4.4376664	40.2E?	-0.07642895
-4.4376664	(km)	-0.07642895
-4.4376664	2,155.0	-0.07642895
-4.4376664	23.0s	-0.07642895
-4.4376664	80.0e	-0.07642895
-4.4376664	40.5s	-0.07642895
-4.4376664	170.1e	-0.07642895
-3.943758	market	-0.22868566
-3.943758	company	-0.07642892
-4.4376664	billions	-0.07642892
-4.4376664	172.7	-0.07642895
-4.4376664	billion	-0.07642895
-4.4376664	sales?	-0.07642895
-4.0893774	profits	-0.12219975
-4.4376664	Berkshire	-0.07642895
-4.4376664	Hathaway?	-0.07642895
-4.2522335	industry	-0.07642895
-4.4376664	80.3	-0.07642895
-4.0893774	billion?	-0.3165601
-4.4376664	companies	-0.07642895
-4.4376664	204.9	-0.07642895
-4.4376664	placements	-0.07642895
-3.943758	reached	-0.07642895
-4.4376664	quarterfinals	-0.07642895
-3.6134439	Open	-0.13562375
-3.6755004	Cup	-0.1012596
-4.0893774	but	-0.07642895
-4.4376664	Concaf	-0.07642895
-4.2522335	Champions	-0.07642892
-3.943758	Cup?	-0.44149882
-3.467486	Round	-0.22744727
-4.2522335	ISBN	-0.07642895
-4.4376664	"Dead	-0.07642895
-4.4376664	Doornail?	-0.07642895
-4.2522335	isbn	-0.07642895
-4.4376664	0-441-01400-3	-0.07642895
-3.943758	book	-0.07642895
-3.391833	number?	-0.9533822
-4.4376664	pubilshed	-0.07642895
-4.4376664	1-937007-44-8?	-0.07642895
-4.2522335	Andrea	-0.07642895
-4.4376664	Schöpp	-0.07642895
-4.0893774	poles	-0.12219975
-4.4376664	25th	-0.07642895
-4.2522335	starts	-0.07642895
-4.4376664	16th	-0.07642895
-4.0893774	hosted	-0.13443807
-3.3274243	June	-0.12010507
-4.2522335	there?	-0.20140772
-4.2522335	highest	-0.098711655
-4.4376664	assist	-0.07642895
-4.4376664	79-88?	-0.07642895
-4.4376664	8th	-0.07642892
-4.4376664	Marcos	-0.07642895
-4.4376664	Hernandez	-0.07642895
-4.4376664	6th?	-0.07642895
-3.943758	4th	-0.07642895
-4.0893774	6th	-0.1556342
-4.0893774	Air	-0.1556342
-4.4376664	Traffic?	-0.07642895
-4.4376664	Kubb	-0.07642895
-4.4376664	9th,	-0.07642895
-4.4376664	dizzee	-0.07642895
-4.4376664	rascal	-0.07642895
-4.4376664	5th,	-0.07642895
-3.943758	winner?	-0.44149882
-4.4376664	60?	-0.07642895
-3.5591562	March	-0.089397594
-3.7479262	18?	-0.61759007
-4.4376664	rebound	-0.07642895
-3.5591562	january	-0.10446565
-4.4376664	74-63	-0.07642895
-4.4376664	11july1964?	-0.07642895
-4.4376664	1august1964?	-0.07642895
-3.6755004	run	-0.16369094
-4.4376664	7.4	-0.07642895
-4.4376664	equation	-0.07642895
-4.4376664	throw	-0.07642895
-4.4376664	equal,	-0.07642895
-4.4376664	throw?	-0.07642895
-3.1367192	laps	-0.25349045
-3.5109067	18	-0.09346711
-4.4376664	pointss	-0.07642895
-3.943758	drive	-0.07642895
-3.943758	scott	-0.07642892
-4.4376664	dixon	-0.07642895
-4.2522335	darren	-0.07642895
-4.4376664	manning	-0.07642895
-4.4376664	93–104	-0.07642895
-3.8348963	(ot)	-0.5384088
-4.2522335	Memphis?	-0.20140772
-4.4376664	poinst	-0.07642895
-4.2522335	72?	-0.20140772
-4.4376664	tracy	-0.07642895
-4.4376664	mcgrady	-0.07642895
-3.7479262	(8)	-0.180105
-3.7479262	@	-0.07642892
-4.4376664	orleans	-0.07642895
-4.0893774	rebounds?	-0.3165601
-4.4376664	aaron	-0.07642895
-4.2522335	brooks	-0.07642895
-4.2522335	(6)	-0.07642895
-3.5591562	grid	-0.12149911
-4.0893774	earned	-0.07642895
-4.4376664	81?	-0.07642895
-4.4376664	79?	-0.07642895
-4.4376664	team(s)	-0.07642895
-3.467486	9?	-0.88083154
-4.2522335	point	-0.07642895
-4.2522335	cleveland?	-0.20140772
-4.2522335	Miami?	-0.20140772
-3.4280143	november	-0.14783515
-3.467486	24	-0.09663806
-4.4376664	98–103	-0.07642895
-4.0893774	team's	-0.20417956
-3.6755004	April	-0.086897306
-3.8348963	Matt	-0.07642895
-4.4376664	Barnes	-0.07642895
-4.4376664	(11)	-0.07642895
-4.4376664	After	-0.07642895
-4.0893774	game,	-0.13443807
-4.4376664	albert	-0.07642895
-4.0893774	r.	-0.07642892
-4.4376664	gemmill	-0.07642895
-4.4376664	236	-0.07642895
-4.0893774	losses	-0.1556342
-4.4376664	1.21.	-0.07642895
-4.0893774	goal	-0.07642895
-4.2522335	averages	-0.07642895
-4.4376664	1.34?	-0.07642895
-4.2522335	athlete	-0.108622886
-3.943758	competed	-0.13443807
-4.4376664	flyweight	-0.07642895
-4.4376664	bye	-0.07642895
-4.0893774	32,	-0.07642892
-4.4376664	"lesan"?	-0.07642895
-4.2522335	verb	-0.1556342
-4.2522335	meaning	-0.20140772
-4.4376664	"sufun"?	-0.07642895
-3.391833	class	-0.17634426
-4.4376664	"giheizan"?	-0.07642895
-4.4376664	"heizan"?	-0.07642895
-4.4376664	7a?	-0.07642895
-4.4376664	"bant"?	-0.07642895
-4.4376664	8.848?	-0.07642895
-4.4376664	8.788?	-0.07642895
-4.0893774	Illinois?	-0.3165601
-4.4376664	swuinsuit	-0.07642895
-4.4376664	oregon	-0.07642895
-4.4376664	preliminary	-0.07642895
-4.0893774	census	-0.07642895
-4.4376664	ranking(s)	-0.07642895
-4.4376664	maugerville?	-0.07642895
-4.4376664	status(es)	-0.07642895
-4.4376664	304.06	-0.07642895
-4.2522335	km2?	-0.20140772
-4.4376664	name(s)	-0.07642895
-4.4376664	places	-0.07642895
-4.4376664	columbia	-0.07642895
-4.4376664	eckstein	-0.07642895
-4.4376664	curb	-0.07642895
-3.8348963	weight	-0.20338583
-4.4376664	wheelbase	-0.07642895
-4.0893774	mm	-0.3165601
-4.4376664	(in)	-0.07642895
-4.4376664	(4Matic)?	-0.07642895
-4.0893774	E	-0.07642892
-4.2522335	body	-0.20140772
-4.4376664	Sedan	-0.07642895
-4.4376664	lengths	-0.07642895
-4.4376664	tall?	-0.07642895
-4.2522335	telecom	-0.07642895
-4.4376664	providers	-0.07642895
-4.4376664	upload	-0.07642895
-3.4280143	rate	-0.26137778
-4.4376664	1024	-0.07642895
-4.4376664	kbits	-0.07642895
-4.4376664	resale	-0.07642895
-3.7479262	category	-0.1433957
-4.0893774	yes?	-0.3165601
-4.4376664	dsl	-0.07642895
-4.4376664	offered	-0.07642895
-4.4376664	M-Net	-0.07642895
-4.4376664	company?	-0.07642895
-4.4376664	provider	-0.07642895
-4.4376664	NetCologne?	-0.07642895
-3.7479262	16,	-0.07642895
-4.4376664	1966,	-0.07642895
-3.3274243	opponent	-0.22417863
-4.2522335	Dolphins?	-0.20140772
-4.2522335	complete	-0.07642895
-4.4376664	series:	-0.07642895
-4.4376664	volume	-0.07642895
-3.8348963	released?	-0.5384088
-4.4376664	4.4	-0.07642895
-4.0893774	titled	-0.07642895
-4.4376664	"twister:	-0.07642895
-4.4376664	1"?	-0.07642895
-3.6755004	matches	-0.1012596
-3.6134439	17	-0.1142284
-3.2713456	game?	-1.0698878
-3.943758	1986?	-0.44149882
-3.8348963	1998?	-0.5384088
-4.2522335	Democratic	-0.20140772
-4.2522335	tackle	-0.07642895
-4.4376664	23.7?	-0.07642895
-4.4376664	brup	-0.07642895
-4.4376664	yards	-0.07642895
-4.4376664	tfl-yds	-0.07642895
-4.4376664	2.5-4?	-0.07642895
-4.4376664	14.849	-0.07642895
-4.2522335	2011-12?	-0.20140772
-4.4376664	103.534	-0.07642895
-3.8348963	annual	-0.07642895
-4.4376664	interchanges	-0.07642895
-3.943758	occurred	-0.07642895
-4.2522335	2011-12	-0.07642895
-4.4376664	entry/exits	-0.07642895
-4.4376664	36.609	-0.07642895
-4.0893774	million?	-0.3165601
-4.4376664	Zolder?	-0.07642895
-4.4376664	(bcp)	-0.07642895
-4.2522335	phrase	-0.07642895
-4.4376664	"for	-0.07642895
-4.4376664	thine	-0.07642895
-4.4376664	kingdom,	-0.07642895
-4.4376664	power"	-0.07642895
-4.0893774	german	-0.07642895
-4.4376664	wording?	-0.07642895
-4.4376664	wording	-0.07642895
-4.2522335	based	-0.07642895
-4.4376664	writing	-0.07642895
-3.943758	system	-0.07642895
-4.4376664	"wie	-0.07642895
-4.4376664	mir	-0.07642895
-4.4376664	die	-0.07642895
-4.4376664	vergewwe	-0.07642895
-4.4376664	wu	-0.07642895
-4.4376664	uns	-0.07642895
-4.4376664	schuldich	-0.07642895
-4.4376664	sinn."?	-0.07642895
-4.4376664	news	-0.07642895
-4.4376664	stations	-0.07642895
-3.943758	opened	-0.12219975
-3.6755004	24,	-0.07642895
-3.6755004	2000?	-0.6845369
-4.2522335	(miles)	-0.07642895
-4.4376664	pico	-0.07642895
-3.8348963	7th	-0.1142284
-4.4376664	st/metro	-0.07642895
-4.4376664	endpoints?	-0.07642895
-4.2522335	lines	-0.07642892
-3.8348963	segment	-0.12219975
-4.0893774	description	-0.24299519
-3.7479262	red	-0.1142284
-3.943758	line	-0.07642895
-4.4376664	mos-2	-0.07642895
-4.4376664	lenth	-0.07642895
-4.4376664	endpoints	-0.07642895
-4.4376664	westlake/macarthur	-0.07642895
-3.943758	park	-0.07642895
-4.4376664	wilshire/western?	-0.07642895
-4.0893774	open?	-0.3165601
-4.0893774	1990	-0.07642892
-4.4376664	survived	-0.07642895
-4.4376664	destroyed?	-0.07642895
-4.4376664	aircraft	-0.07642895
-4.4376664	ussr	-0.07642895
-4.4376664	mig-25	-0.07642895
-4.4376664	rb	-0.07642895
-4.2522335	Belgium?	-0.20140772
-4.4376664	Dominika	-0.07642895
-4.4376664	Cibulková?	-0.07642895
-4.4376664	Magdaléna	-0.07642895
-4.4376664	Rybáriková?	-0.07642895
-3.943758	edition	-0.1142284
-4.0893774	clay	-0.07642895
-4.4376664	(i)	-0.07642895
-3.6134439	surface	-0.108622886
-4.4376664	60425	-0.07642895
-3.4280143	people	-0.22945696
-4.0893774	seen	-0.1556342
-4.4376664	31095	-0.07642895
-4.2522335	people?	-0.20140772
-4.4376664	award-winning	-0.07642895
-3.5591562	film	-0.1449876
-4.4376664	screening	-0.07642895
-4.2522335	50	-0.07642895
-4.4376664	films	-0.07642895
-4.4376664	televised?	-0.07642895
-3.943758	opening	-0.13443807
-3.6134439	23?	-0.7425288
-4.4376664	closing	-0.07642895
-4.4376664	garnered	-0.07642895
-4.4376664	20.64	-0.07642895
-4.4376664	Pranita	-0.07642895
-4.4376664	Sahu's	-0.07642895
-3.8348963	get?	-0.5384088
-4.4376664	Jatin	-0.07642895
-4.2522335	Shah	-0.07642895
-4.4376664	Shalini	-0.07642895
-4.4376664	Chandran	-0.07642895
-4.4376664	perform?	-0.07642895
-4.0893774	Tina	-0.07642892
-4.4376664	Parekh?	-0.07642895
-4.4376664	41/60	-0.07642895
-4.4376664	Prix	-0.07642892
-4.2522335	Daijiro	-0.20140772
-4.4376664	Hiura	-0.07642895
-3.7479262	grand	-0.2833608
-4.4376664	prixs	-0.07642895
-4.4376664	TT	-0.07642895
-4.4376664	Luis	-0.07642895
-4.4376664	Salom	-0.07642895
-4.4376664	circuits?	-0.07642895
-4.4376664	"episode	-0.07642895
-4.4376664	1"	-0.07642895
-4.2522335	director?	-0.20140772
-4.4376664	102?	-0.07642895
-4.4376664	107?	-0.07642895
-4.4376664	little	-0.07642895
-3.6134439	league	-0.09346711
-4.2522335	Rock	-0.07642895
-4.4376664	Falls	-0.07642895
-3.6755004	LL	-0.07642895
-4.4376664	Falls?	-0.07642895
-4.0893774	Indiana	-0.07642895
-4.0893774	Michigan	-0.07642892
-4.4376664	Midland	-0.07642895
-4.4376664	Northeast	-0.07642895
-4.4376664	Midland?	-0.07642895
-4.2522335	Wisconsin	-0.07642895
-4.2522335	Brownsburg	-0.07642895
-4.4376664	Merrill	-0.07642895
-4.4376664	Merrill?	-0.07642895
-4.4376664	Ohio	-0.07642895
-4.0893774	Warren	-0.07642892
-3.943758	County	-0.13443807
-3.5591562	South	-0.098711655
-4.4376664	Bowling	-0.07642895
-4.4376664	Green?	-0.07642895
-4.2522335	Terre	-0.07642895
-4.4376664	Haute	-0.07642895
-4.4376664	Haute?	-0.07642895
-4.2522335	Grosse	-0.20140772
-4.4376664	Pointe	-0.07642895
-4.4376664	Farms-City	-0.07642895
-4.4376664	Farms?	-0.07642895
-3.8348963	theme	-0.1142284
-4.4376664	Magarikado	-0.07642895
-4.4376664	Kanojo?	-0.07642895
-4.2522335	star	-0.07642892
-4.4376664	program	-0.07642895
-4.4376664	Thursdays	-0.07642895
-4.2522335	22:00~22:54	-0.07642895
-4.4376664	2005-04-xx	-0.07642895
-4.4376664	2005-06-xx?	-0.07642895
-4.4376664	22.4%?	-0.07642895
-4.2522335	Japanese	-0.07642895
-4.4376664	11.6%?	-0.07642895
-4.2522335	starting	-0.07642895
-4.4376664	actors	-0.07642895
-4.4376664	frame	-0.07642895
-4.4376664	tuesday	-0.07642895
-4.4376664	japanese	-0.07642895
-4.2522335	title(s)	-0.07642895
-3.943758	tv	-0.07642895
-4.4376664	asahi?	-0.07642895
-4.4376664	romaji	-0.07642895
-4.4376664	"ya-kyim	-0.07642895
-4.4376664	"super☆looper"?	-0.07642895
-3.7479262	speed	-0.22868566
-4.4376664	4-speed	-0.07642895
-4.4376664	automatic	-0.07642895
-4.4376664	2002-2005?	-0.07642895
-4.4376664	5-speed	-0.07642895
-4.4376664	manual	-0.07642895
-4.4376664	transmission	-0.07642895
-4.0893774	produced	-0.1556342
-4.4376664	2006-2009?	-0.07642895
-4.4376664	acceleration	-0.07642895
-4.4376664	0-100km/h	-0.07642895
-4.4376664	2002-2006?	-0.07642895
-4.4376664	township	-0.07642895
-4.4376664	geo	-0.07642895
-4.2522335	ID	-0.07642895
-4.4376664	3807116660?	-0.07642895
-4.4376664	-102.302775?	-0.07642895
-4.4376664	land	-0.07642895
-4.4376664	sqmi	-0.07642895
-4.4376664	48.763937?	-0.07642895
-4.4376664	46.770977?	-0.07642895
-4.2522335	Clearwater	-0.07642895
-4.4376664	townsship?	-0.07642895
-4.4376664	48.075823?	-0.07642895
-3.8348963	41	-0.108622886
-4.4376664	legs	-0.07642895
-4.2522335	lost?	-0.20140772
-4.4376664	14.200,	-0.07642895
-4.4376664	parallel	-0.07642895
-4.4376664	bars?	-0.07642895
-4.4376664	bars	-0.07642895
-4.4376664	16.150,	-0.07642895
-4.4376664	gymnast?	-0.07642895
-4.4376664	horizontal	-0.07642895
-4.4376664	bar	-0.07642895
-4.2522335	n/a	-0.20140772
-4.4376664	14.175,	-0.07642895
-3.5591562	19	-0.111201085
-3.8348963	stage	-0.07642895
-3.8348963	classification?	-0.5384088
-4.4376664	löfkvist	-0.07642895
-4.4376664	young	-0.07642895
-3.8348963	rider	-0.07642895
-3.6755004	classification	-0.1885011
-4.4376664	alessandro	-0.07642895
-4.4376664	petacchi	-0.07642895
-4.2522335	general	-0.07642892
-4.4376664	classifications?	-0.07642895
-4.4376664	philippe	-0.07642895
-4.4376664	gilbert	-0.07642895
-3.467486	winner	-0.19708312
-4.4376664	danilo	-0.07642895
-4.2522335	di	-0.07642895
-4.2522335	luca	-0.07642895
-3.943758	nickname	-0.12219975
-4.4376664	bears?	-0.07642895
-4.4376664	Mayne	-0.07642895
-4.4376664	coach?	-0.07642895
-4.4376664	Hillcrest	-0.07642895
-4.2522335	Reserve	-0.07642895
-4.4376664	grounds?	-0.07642895
-4.4376664	Caversham,	-0.07642895
-4.2522335	captain?	-0.20140772
-4.4376664	With	-0.07642895
-4.4376664	swans,	-0.07642895
-4.4376664	ground?	-0.07642895
-4.2522335	washington	-0.07642895
-4.4376664	redskins?	-0.07642895
-4.4376664	monseñor	-0.07642895
-4.4376664	nouel,	-0.07642895
-4.4376664	(km²)?	-0.07642895
-4.4376664	Nagua	-0.07642895
-4.2522335	(km²)	-0.07642895
-4.0893774	of?	-0.3165601
-3.943758	period	-0.12219975
-4.0893774	parliament	-0.07642892
-4.4376664	11th?	-0.07642895
-4.4376664	parliament's	-0.07642895
-4.4376664	lina	-0.07642895
-4.4376664	loh	-0.07642895
-4.4376664	woon	-0.07642895
-4.2522335	lee?	-0.20140772
-4.2522335	it's	-0.07642895
-4.4376664	conscituency	-0.07642895
-4.2522335	contested	-0.07642895
-4.4376664	aljunied	-0.07642895
-4.4376664	grc?	-0.07642895
-4.4376664	sylvia	-0.07642895
-4.4376664	lim	-0.07642895
-4.4376664	swee	-0.07642895
-4.4376664	lian?	-0.07642895
-4.4376664	finish?	-0.07642895
-4.4376664	rewards	-0.07642895
-3.6134439	6,	-0.12122987
-4.2522335	same	-0.07642895
-4.4376664	target;	-0.07642895
-4.2522335	linebacker	-0.07642895
-4.2522335	ii	-0.07642895
-4.4376664	offensive	-0.07642895
-4.4376664	unit?	-0.07642895
-4.4376664	hit	-0.07642895
-4.4376664	sam	-0.07642895
-4.4376664	38,500	-0.07642895
-3.7479262	feet	-0.10446565
-4.4376664	just	-0.07642895
-2.91495	after	-0.14105713
-4.2522335	bomb	-0.07642895
-4.4376664	cause	-0.07642895
-3.6134439	loss	-0.19213852
-4.4376664	mission/target?	-0.07642895
-4.4376664	bw	-0.07642895
-4.4376664	attached	-0.07642895
-4.4376664	43rd	-0.07642895
-4.4376664	sw	-0.07642895
-4.4376664	b-52	-0.07642895
-4.4376664	441st	-0.07642895
-4.4376664	bs,	-0.07642895
-4.4376664	gp	-0.07642895
-4.4376664	h-e	-0.07642895
-4.4376664	bombs	-0.07642895
-4.2522335	capacity	-0.12219975
-3.8348963	loss?	-0.5384088
-4.4376664	entering	-0.07642895
-4.4376664	conjunction	-0.07642895
-4.2522335	junction	-0.07642895
-3.8348963	music	-0.07642892
-4.0893774	bob	-0.07642892
-4.4376664	dorough	-0.07642895
-4.4376664	performer?	-0.07642895
-4.4376664	pronoun	-0.07642895
-3.7479262	title?	-0.61759007
-4.4376664	interjection	-0.07642895
-4.4376664	lyrics	-0.07642895
-3.6134439	world	-0.21755143
-4.4376664	17.2	-0.07642895
-4.4376664	rhb	-0.07642895
-4.4376664	11.8	-0.07642895
-4.4376664	revenue	-0.07642895
-4.4376664	2.1	-0.07642895
-4.4376664	institutes	-0.07642895
-4.2522335	gave	-0.20140772
-4.4376664	renewal	-0.07642895
-4.4376664	18.0%	-0.07642895
-3.8348963	–	-0.12219975
-4.2522335	22.0%	-0.07642895
-4.2522335	1985?	-0.20140772
-4.4376664	popular	-0.07642895
-4.4376664	6.88%	-0.07642895
-3.8348963	votes	-0.18560776
-4.0893774	43	-0.07642895
-4.2522335	12th	-0.07642895
-4.4376664	Cook	-0.07642895
-4.4376664	PVI	-0.07642895
-3.943758	representative	-0.07642895
-3.943758	Mike	-0.07642895
-4.4376664	Thompson?	-0.07642895
-3.5109067	2012	-0.16620915
-4.2522335	locations	-0.07642895
-4.4376664	Barbara	-0.07642895
-4.4376664	Lee?	-0.07642895
-4.2522335	C_{high}	-0.07642895
-4.4376664	C_{low}	-0.07642895
-4.4376664	250.5?	-0.07642895
-4.2522335	12.0?	-0.20140772
-4.4376664	members	-0.07642895
-4.4376664	sold	-0.07642895
-4.2522335	65	-0.07642895
-4.0893774	albums	-0.07642892
-3.8348963	singles?	-0.5384088
-3.6134439	29	-0.07642895
-4.4376664	albums?	-0.07642895
-4.0893774	radio	-0.07642892
-4.4376664	luxembourg?	-0.07642895
-4.4376664	Persinab	-0.07642895
-4.4376664	Nabire	-0.07642895
-3.943758	Group	-0.07642895
-3.467486	11	-0.09115637
-4.4376664	Persipal	-0.07642895
-4.4376664	Palu	-0.07642895
-3.3584359	12	-0.13180286
-4.4376664	persikutim	-0.07642895
-4.0893774	east	-0.07642892
-4.4376664	kutai	-0.07642895
-4.4376664	persikos	-0.07642895
-4.4376664	sorong	-0.07642895
-3.7479262	11,	-0.108622886
-4.4376664	psid	-0.07642895
-4.4376664	jombang?	-0.07642895
-4.2522335	every	-0.07642895
-4.4376664	song,	-0.07642895
-3.8348963	weeks	-0.20417956
-4.0893774	each	-0.07642895
-4.2522335	#1	-0.07642892
-4.2522335	One	-0.07642895
-4.4376664	Direction?	-0.07642895
-4.4376664	Rihanna	-0.07642895
-4.0893774	NHL	-0.3165601
-4.0893774	Calgary	-0.07642892
-4.4376664	Centennials	-0.07642895
-4.4376664	(WCHL)	-0.07642895
-3.943758	drafted	-0.12219975
-3.7479262	came	-0.34596157
-3.7479262	University	-0.1433957
-4.4376664	(NCAA)	-0.07642895
-4.2522335	(NCAA)?	-0.20140772
-4.4376664	Russ	-0.07642895
-4.4376664	Wiechnik,	-0.07642895
-4.2522335	centre	-0.07642895
-4.2522335	position,	-0.07642895
-3.6755004	come	-0.29563245
-3.391833	if	-0.26459494
-3.943758	your	-0.13443807
-2.7369728	less	-1.5953137
-4.2522335	2.0?	-0.20140772
-4.4376664	couples	-0.07642895
-4.4376664	15.9?	-0.07642895
-3.6134439	9,	-0.098711655
-4.2522335	couple?	-0.20140772
-4.4376664	york	-0.07642892
-4.4376664	re-elected	-0.07642895
-4.4376664	brian	-0.07642895
-4.4376664	higgins	-0.07642895
-4.4376664	yvette	-0.07642895
-4.4376664	clarke	-0.07642895
-4.4376664	90.6%	-0.07642895
-4.4376664	hugh	-0.07642895
-4.2522335	carr	-0.07642895
-4.2522335	9.4%	-0.07642895
-4.0893774	hold	-0.07642892
-4.0893774	1992	-0.07642892
-4.4376664	alabama	-0.07642895
-4.4376664	katowice?	-0.07642895
-4.2522335	timeslot	-0.07642895
-4.4376664	6.51	-0.07642895
-4.4376664	uk	-0.07642895
-4.2522335	audience	-0.07642895
-3.6755004	share	-0.25894412
-4.4376664	7.3%	-0.07642895
-4.4376664	Where's	-0.07642895
-3.5591562	Mark	-0.07642895
-4.4376664	Fletcher	-0.07642895
-3.943758	principal	-0.1142284
-4.4376664	Who's	-0.07642895
-4.4376664	Edgewood	-0.07642895
-4.4376664	School?/	-0.07642895
-4.4376664	Bloomington	-0.07642895
-4.2522335	North?	-0.20140772
-4.4376664	Texaco/Havoline	-0.07642895
-3.943758	200	-0.07642895
-3.8348963	Paul	-0.1142284
-4.4376664	Tracy,	-0.07642895
-4.2522335	Emerson	-0.20140772
-4.4376664	Fittipaldi	-0.07642895
-4.4376664	Andretti,	-0.07642895
-4.4376664	Nigel	-0.07642895
-4.4376664	Mansell	-0.07642895
-4.0893774	driving	-0.13443807
-4.4376664	ITT	-0.07642895
-4.4376664	Automotive	-0.07642895
-4.4376664	Detroit,	-0.07642895
-4.4376664	Tracy?	-0.07642895
-4.4376664	4akj08?	-0.07642895
-4.4376664	4akj01?	-0.07642895
-4.2522335	torque	-0.07642892
-4.4376664	characteristics	-0.07642895
-3.6755004	1996?	-0.6845369
-4.4376664	compression	-0.07642895
-4.4376664	ratio	-0.07642895
-4.4376664	L35	-0.07642895
-4.4376664	RPO	-0.07642895
-4.2522335	applications?	-0.20140772
-4.4376664	346	-0.07642895
-4.2522335	Honda	-0.07642895
-4.2522335	motorcycle?	-0.20140772
-4.4376664	Kalex	-0.07642895
-4.4376664	Italtrans	-0.07642895
-4.4376664	Team's,	-0.07642895
-4.4376664	pts,	-0.07642895
-3.6755004	class?	-0.6845369
-4.4376664	conventional	-0.07642895
-4.4376664	تاغارما	-0.07642895
-4.4376664	uyghur	-0.07642895
-4.4376664	瓦恰	-0.07642895
-4.4376664	defter	-0.07642895
-4.4376664	pinyin	-0.07642895
-4.4376664	تىزناپ	-0.07642895
-4.4376664	mazar	-0.07642895
-4.4376664	kɵkyar	-0.07642895
-4.4376664	k̡irƣiz	-0.07642895
-4.4376664	yezisi	-0.07642895
-4.4376664	22000?	-0.07642895
-4.2522335	res	-0.07642895
-4.4376664	Payam?	-0.07642895
-3.2713456	2006?	-1.0698878
-4.4376664	Regina?	-0.07642895
-4.4376664	BC	-0.07642895
-4.2522335	Lions?	-0.20140772
-4.4376664	picks	-0.07642895
-4.4376664	Calgary?	-0.07642895
-3.6755004	17?	-0.6845369
-4.4376664	SV	-0.07642895
-4.4376664	Darmstadt	-0.07642895
-4.4376664	98	-0.07642895
-3.943758	up	-0.07642895
-4.0893774	RL	-0.24299519
-4.4376664	Süd	-0.07642892
-4.2522335	(1st)?	-0.20140772
-4.4376664	(1st)	-0.07642895
-4.0893774	FK	-0.07642892
-4.4376664	Pirmasens	-0.07642895
-4.2522335	Südwest	-0.07642895
-4.4376664	Freiburger	-0.07642895
-4.2522335	FC	-0.07642895
-4.4376664	(2nd)	-0.07642895
-3.8348963	builder	-0.1012596
-4.4376664	wd	-0.07642895
-3.3274243	22	-0.10657675
-4.4376664	lms	-0.07642895
-3.8348963	serial	-0.17336896
-4.4376664	372	-0.07642895
-4.4376664	377	-0.07642895
-4.4376664	"deep	-0.07642895
-4.4376664	batman!"	-0.07642895
-4.4376664	s01e13	-0.07642895
-4.0893774	ben	-0.07642895
-4.4376664	m.	-0.07642895
-4.4376664	dematteis	-0.07642895
-4.4376664	february6,2009	-0.07642895
-4.4376664	s01e06	-0.07642895
-4.4376664	Ben	-0.07642895
-4.0893774	Jones	-0.07642892
-4.4376664	Steven	-0.07642895
-4.4376664	Melching?	-0.07642895
-4.4376664	"Crisis:	-0.07642895
-4.4376664	22,300	-0.07642895
-4.4376664	Miles	-0.07642895
-4.4376664	Above	-0.07642895
-4.4376664	Earth!"?	-0.07642895
-4.4376664	White,	-0.07642895
-3.8348963	he	-0.090221114
-3.019127	more	-0.7736052
-4.4376664	1.0	-0.07642895
-4.4376664	poles?	-0.07642895
-4.4376664	compete	-0.07642895
-4.4376664	GP3	-0.07642895
-3.8348963	series?	-0.5384088
-4.2522335	epa	-0.20140772
-4.2522335	highway	-0.07642892
-3.8348963	fuel	-0.07642895
-4.4376664	economy	-0.07642895
-4.2522335	electric	-0.07642895
-4.4376664	suv?	-0.07642895
-3.8348963	vehicle	-0.14011699
-4.2522335	109	-0.07642895
-4.4376664	mpg-e?	-0.07642895
-4.2522335	shareholder	-0.07642895
-4.4376664	2.55	-0.07642895
-3.943758	percent	-0.24299519
-4.0893774	votes?	-0.3165601
-4.4376664	3.63	-0.07642895
-4.2522335	s	-0.1556342
-3.943758	B	-0.07642895
-4.4376664	8256534?	-0.07642895
-4.4376664	Handelsbanken	-0.07642895
-4.4376664	funds	-0.07642895
-4.4376664	incl	-0.07642895
-4.4376664	XACT?	-0.07642895
-4.0893774	price	-0.1556342
-4.4376664	11/1	-0.07642895
-4.2522335	jockey	-0.07642892
-4.4376664	Garrett	-0.07642895
-4.4376664	Cotter?	-0.07642895
-4.0893774	entrant	-0.07642895
-4.2522335	owner	-0.07642895
-4.4376664	Johnson?	-0.07642895
-4.0893774	others	-0.1142284
-3.943758	McCain	-0.13443807
-4.4376664	52.9%	-0.07642895
-4.4376664	45205.0	-0.07642895
-4.4376664	voters?	-0.07642895
-4.4376664	voters	-0.07642895
-4.2522335	Obama	-0.07642895
-4.4376664	895?	-0.07642895
-4.4376664	Gem	-0.07642895
-4.2522335	County,	-0.07642895
-4.2522335	percentage?	-0.20140772
-4.4376664	Jerome	-0.07642895
-3.8348963	county?	-0.5384088
-4.4376664	showings	-0.07642895
-4.4376664	snooker	-0.07642895
-4.4376664	Wildcats	-0.07642895
-4.4376664	Purdue?	-0.07642895
-4.4376664	twente	-0.07642895
-4.4376664	ajax	-0.07642895
-4.4376664	seasons?	-0.07642895
-4.4376664	nac	-0.07642895
-4.4376664	breda	-0.07642895
-4.4376664	psv	-0.07642895
-4.4376664	eindhoven	-0.07642895
-4.0893774	scorer?	-0.3165601
-4.2522335	naming	-0.07642895
-4.4376664	fluent	-0.07642895
-4.2522335	poor	-0.07642895
-4.2522335	comprehension	-0.07642895
-4.4376664	non-fluent,	-0.07642895
-4.4376664	effortful,	-0.07642895
-4.4376664	slow	-0.07642895
-4.4376664	fluency	-0.07642895
-4.4376664	transcortical	-0.07642895
-4.4376664	sensory	-0.07642895
-4.4376664	aphasia	-0.07642895
-4.2522335	Martina	-0.07642895
-4.4376664	Navratilova	-0.07642895
-4.2522335	Wimbledon?	-0.20140772
-4.0893774	NFL	-0.1556342
-4.4376664	barangay	-0.07642895
-4.4376664	guadalupe	-0.07642895
-4.4376664	viejo?	-0.07642895
-4.4376664	Ivy	-0.07642895
-3.5591562	League	-0.07642895
-3.467486	Player	-0.20293656
-3.5591562	Year	-0.09991673
-4.4376664	Lafayette	-0.07642895
-3.6755004	2000	-0.09491762
-4.4376664	MWC	-0.07642895
-3.7479262	Men's	-0.098711655
-4.4376664	Basketball	-0.07642895
-4.2522335	Tournament?	-0.20140772
-4.4376664	pct	-0.07642895
-4.2522335	78?	-0.20140772
-4.2522335	van	-0.07642895
-4.4376664	den	-0.07642895
-4.4376664	brink,	-0.07642895
-4.4376664	bas	-0.07642895
-4.2522335	apps	-0.07642895
-4.4376664	3.3	-0.07642895
-4.4376664	(millions)	-0.07642895
-4.0893774	u.s	-0.1556342
-4.2522335	directors	-0.07642895
-3.5591562	called	-0.07642895
-4.4376664	"someone	-0.07642895
-4.4376664	witch	-0.07642895
-3.2713456	over	-0.08641596
-4.4376664	me"?	-0.07642895
-4.4376664	writers?	-0.07642895
-4.4376664	Brad	-0.07642895
-4.4376664	Kern,	-0.07642895
-4.4376664	Carbon	-0.07642895
-4.4376664	Dioxide?	-0.07642895
-4.4376664	Nitrous	-0.07642895
-4.4376664	Oxide?	-0.07642895
-4.4376664	lifetime	-0.07642895
-4.4376664	(years)	-0.07642895
-4.4376664	chemical	-0.07642895
-4.2522335	formula	-0.07642895
-4.0893774	ch	-0.07642892
-4.4376664	289?	-0.07642895
-4.4376664	153?	-0.07642895
-4.4376664	Sulfur	-0.07642895
-4.4376664	Hexafluoride?	-0.07642895
-4.4376664	traditional	-0.07642895
-3.7479262	form	-0.27301112
-4.4376664	永城市?	-0.07642895
-4.4376664	宁陵县?	-0.07642895
-4.4376664	820?	-0.07642895
-4.4376664	Pinyin	-0.07642895
-4.4376664	simplified	-0.07642895
-4.4376664	虞城县?	-0.07642895
-4.2522335	summary	-0.07642895
-4.4376664	torae	-0.07642895
-4.0893774	coach	-0.07642892
-4.4376664	emily	-0.07642895
-4.2522335	into	-0.07642895
-4.0893774	outgoing	-0.1556342
-4.4376664	person.	-0.07642895
-4.4376664	travis	-0.07642895
-4.2522335	brown	-0.07642895
-3.6755004	15?	-0.6845369
-4.4376664	premiered	-0.07642895
-3.6134439	February	-0.14302008
-3.6134439	later	-0.7425288
-4.4376664	21.0?	-0.07642895
-3.943758	=	-0.07642895
-4.4376664	expression	-0.07642895
-4.4376664	month	-0.07642895
-4.4376664	((d	-0.07642895
-3.5591562	+	-0.098711655
-4.4376664	114)	-0.07642895
-4.4376664	31)?	-0.07642895
-3.6755004	2010?	-0.6845369
-3.391833	2009	-0.13497038
-4.4376664	easter	-0.07642895
-4.4376664	(julian	-0.07642895
-4.4376664	calendar)?	-0.07642895
-4.4376664	prada	-0.07642895
-4.2522335	challenge	-0.07642895
-4.4376664	rr2	-0.07642895
-4.4376664	pts	-0.07642895
-4.4376664	r1b1a2	-0.07642895
-4.4376664	(r-m269)	-0.07642895
-4.4376664	77.8%	-0.07642895
-4.0893774	r1b1c	-0.1556342
-4.4376664	(r-v88)?	-0.07642895
-4.4376664	Niger	-0.07642895
-4.4376664	(r-v88)	-0.07642895
-4.4376664	0.0%?	-0.07642895
-4.4376664	4.5%	-0.07642895
-4.4376664	RCM	-0.07642892
-4.4376664	9.7?	-0.07642895
-4.4376664	14.1?	-0.07642895
-4.4376664	18847?	-0.07642895
-4.4376664	21.1?	-0.07642895
-4.2522335	withdrawal	-0.20140772
-4.2522335	graduation	-0.20140772
-4.4376664	89.3%?	-0.07642895
-4.4376664	headquarter	-0.07642895
-4.4376664	Annapolis	-0.07642895
-4.2522335	Valley	-0.07642895
-4.4376664	Regional	-0.07642895
-4.4376664	Board?	-0.07642895
-4.4376664	headquarters	-0.07642895
-4.4376664	Truro?	-0.07642895
-4.4376664	Sydney?	-0.07642895
-4.2522335	events	-0.07642895
-3.943758	1983?	-0.44149882
-3.8348963	led	-0.26678032
-4.4376664	grass	-0.07642895
-3.943758	surface?	-0.44149882
-4.2522335	Craig	-0.07642895
-4.4376664	Ross,	-0.07642895
-4.4376664	Jr.	-0.07642895
-4.4376664	519?	-0.07642895
-4.4376664	successors	-0.07642895
-3.8348963	1964?	-0.5384088
-3.4280143	August	-0.08866685
-4.2522335	administrative	-0.20140772
-3.8348963	according	-0.5384088
-4.4376664	siak	-0.07642895
-4.4376664	database	-0.07642895
-4.4376664	3,672,994?	-0.07642895
-4.4376664	bandung	-0.07642895
-4.4376664	regency?	-0.07642895
-4.4376664	606,699	-0.07642895
-4.4376664	database?	-0.07642895
-4.4376664	cimahi	-0.07642895
-4.4376664	264170	-0.07642895
-4.2522335	census?	-0.20140772
-4.4376664	installation	-0.07642895
-4.2522335	El	-0.07642895
-4.4376664	Paso,	-0.07642895
-4.0893774	Texas?	-0.3165601
-4.4376664	chapter	-0.07642895
-4.4376664	Wesleyan?	-0.07642895
-4.4376664	inactive	-0.07642895
-4.4376664	Texas,	-0.07642895
-4.4376664	Paso?	-0.07642895
-4.2522335	Delta	-0.07642895
-4.4376664	Chapter?	-0.07642895
-4.4376664	lowest	-0.07642895
-4.4376664	pohang	-0.07642895
-4.4376664	steelyard	-0.07642895
-3.7479262	stadium?	-0.61759007
-4.4376664	32250?	-0.07642895
-4.2522335	steelers	-0.07642895
-4.4376664	7757	-0.07642895
-4.4376664	average?	-0.07642895
-4.4376664	aired?	-0.07642895
-4.2522335	Mary	-0.07642895
-4.4376664	Harron?	-0.07642895
-4.2522335	grade	-0.07642895
-4.4376664	şımarık	-0.07642895
-4.4376664	tarkan	-0.07642895
-4.4376664	#08	-0.07642895
-4.4376664	racing?	-0.07642895
-3.7479262	racing	-0.07642892
-4.2522335	23.3?	-0.20140772
-4.4376664	team/s	-0.07642895
-4.4376664	92nd	-0.07642895
-4.4376664	versus	-0.07642895
-4.4376664	Africa?	-0.07642895
-3.943758	championship	-0.09663806
-4.4376664	1981?	-0.07642895
-4.4376664	"Freaky	-0.07642895
-4.4376664	Friday"?	-0.07642895
-4.2522335	James	-0.07642895
-4.4376664	Widdoes	-0.07642895
-4.4376664	320?	-0.07642895
-4.2522335	orchestra	-0.07642895
-4.2522335	recording	-0.07642895
-4.4376664	1951?	-0.07642895
-4.4376664	1934?	-0.07642895
-4.2522335	former	-0.07642895
-4.4376664	codes	-0.07642895
-4.4376664	merged	-0.07642895
-4.4376664	panama	-0.07642895
-4.4376664	pa	-0.07642895
-4.4376664	pan	-0.07642895
-4.4376664	591	-0.07642895
-4.4376664	1967	-0.07642895
-4.0893774	mayor	-0.1556342
-4.4376664	seguier	-0.07642895
-4.2522335	jacques	-0.20140772
-4.4376664	lachapelle	-0.07642895
-4.2522335	donald	-0.07642895
-4.4376664	dutton	-0.07642895
-4.2522335	filled	-0.20140772
-4.2522335	g.	-0.07642895
-4.4376664	sanscartier	-0.07642895
-4.4376664	GP	-0.07642895
-4.4376664	244?	-0.07642895
-4.4376664	Lawson	-0.07642895
-3.1367192	Team	-0.19507384
-4.4376664	Impul?	-0.07642895
-4.4376664	Benoît	-0.07642895
-4.4376664	Tréluyer	-0.07642895
-3.943758	West	-0.07642895
-4.4376664	Indies	-0.07642895
-4.0893774	match?	-0.3165601
-4.4376664	131	-0.07642895
-4.0893774	runs?	-0.3165601
-4.0893774	Jan	-0.07642892
-4.4376664	Bellerive	-0.07642895
-3.467486	Country	-0.26137778
-4.2522335	Club	-0.07642895
-4.4376664	1982.	-0.07642895
-4.4376664	election;	-0.07642895
-4.2522335	served	-0.07642895
-4.2522335	until	-0.07642895
-3.5591562	14,	-0.09346711
-4.4376664	1794	-0.07642895
-4.4376664	delegate	-0.07642895
-4.4376664	established	-0.07642895
-4.4376664	(class)	-0.07642895
-4.2522335	Joseph	-0.07642892
-4.2522335	Anderson	-0.07642895
-4.4376664	DR	-0.07642895
-4.4376664	resigned	-0.07642895
-3.7479262	26,	-0.108622886
-4.2522335	1798	-0.07642895
-4.2522335	Hunter	-0.07642895
-4.4376664	Massachusetts	-0.07642895
-4.4376664	declared	-0.07642895
-4.4376664	vacant	-0.07642895
-3.467486	2,	-0.14784461
-4.4376664	1808	-0.07642895
-4.4376664	Culpepper	-0.07642895
-3.943758	(f)	-0.07642895
-4.4376664	vacator?	-0.07642895
-4.4376664	territory	-0.07642895
-4.4376664	at-large	-0.07642895
-4.2522335	1826	-0.20140772
-4.2522335	pennsylvania	-0.07642895
-4.0893774	13th	-0.1556342
-3.7479262	13,	-0.07642895
-3.943758	17th	-0.07642895
-4.4376664	170?	-0.07642895
-4.4376664	writers	-0.07642892
-4.4376664	8011?	-0.07642895
-4.2522335	Timothy	-0.07642895
-4.4376664	Lea	-0.07642895
-4.4376664	Norberto	-0.07642895
-4.4376664	Barba?	-0.07642895
-4.4376664	miles	-0.07642895
-4.4376664	driven	-0.07642895
-4.4376664	2:47:11?	-0.07642895
-4.4376664	1968	-0.07642895
-4.4376664	301*	-0.07642895
-3.4280143	laps?	-0.9186201
-4.4376664	212	-0.07642895
-4.4376664	respect	-0.07642895
-4.4376664	toward	-0.07642895
-3.8348963	birth	-0.10446565
-4.4376664	27/07/86	-0.07642895
-4.4376664	francesco	-0.07642895
-4.4376664	guglielmi	-0.07642895
-4.4376664	Cowboys	-0.07642895
-3.943758	1966?	-0.44149882
-4.4376664	Cowboys'	-0.07642895
-4.4376664	Nov.	-0.07642895
-4.2522335	Maryland	-0.07642895
-4.4376664	Idaho	-0.07642895
-4.4376664	Missouri	-0.07642895
-4.2522335	Conference	-0.07642895
-3.3584359	place?	-0.98556685
-4.2522335	Arizona	-0.07642895
-4.4376664	Atlantic	-0.07642895
-4.2522335	Coast	-0.07642895
-4.4376664	Conference?	-0.07642895
-4.4376664	3.6%	-0.07642895
-4.4376664	unemployment	-0.07642895
-4.0893774	rate?	-0.3165601
-4.4376664	17.3%	-0.07642895
-4.2522335	poverty	-0.20140772
-4.4376664	$24,326?	-0.07642895
-4.4376664	1ark07.	-0.07642895
-4.2522335	viewed	-0.07642895
-4.4376664	"Father's	-0.07642895
-4.4376664	Day"?	-0.07642895
-4.4376664	viewership	-0.07642895
-4.4376664	1.945	-0.07642895
-4.4376664	million.	-0.07642895
-4.4376664	1ark79?	-0.07642895
-4.4376664	Brook	-0.07642895
-4.4376664	Lopez	-0.07642895
-4.2522335	0-1	-0.07642895
-4.2522335	assists?	-0.20140772
-3.943758	1-1	-0.07642895
-4.0893774	george	-0.07642892
-3.943758	hill	-0.07642895
-4.2522335	(29)	-0.07642895
-4.2522335	audition	-0.1556342
-4.4376664	hyatt	-0.07642895
-4.4376664	regency	-0.07642895
-4.2522335	callback	-0.07642895
-4.4376664	amway	-0.07642895
-4.2522335	golden	-0.07642895
-4.4376664	ticket	-0.07642895
-4.4376664	invesco	-0.07642895
-4.0893774	field	-0.07642892
-4.4376664	k.	-0.07642895
-4.2522335	narayanan	-0.07642895
-4.4376664	pondicherry	-0.07642895
-4.2522335	kr	-0.07642895
-4.4376664	936	-0.07642895
-4.4376664	lieberstein	-0.07642895
-4.2522335	Jordan	-0.07642895
-4.4376664	Coleman	-0.07642895
-4.4376664	rank/s	-0.07642895
-4.4376664	Eddie	-0.07642895
-4.4376664	Guerrero?	-0.07642895
-3.7479262	"	-0.10446565
-4.2522335	don't	-0.07642895
-4.4376664	look	-0.07642895
-3.943758	smith	-0.07642895
-4.0893774	horse	-0.07642895
-4.4376664	mouth	-0.07642895
-4.4376664	88	-0.07642895
-4.4376664	5ajn11	-0.07642895
-4.4376664	pam	-0.07642895
-4.4376664	cooke	-0.07642895
-4.4376664	jansen	-0.07642895
-4.4376664	yee	-0.07642895
-4.4376664	philadelphia	-0.07642895
-4.4376664	corrado	-0.07642895
-4.4376664	barazzutti	-0.07642895
-4.2522335	boston	-0.07642895
-4.4376664	guillermo	-0.07642895
-4.4376664	vilas	-0.07642895
-4.4376664	Mcenroe	-0.07642895
-4.0893774	Open?	-0.3165601
-3.943758	6–4,	-0.13443807
-4.2522335	6–7	-0.07642895
-4.4376664	(1–7)	-0.07642895
-4.4376664	(4–7)	-0.07642895
-4.0893774	4–6?	-0.3165601
-3.7479262	rebounds	-0.1142284
-4.4376664	TD	-0.07642895
-4.2522335	Garden	-0.07642895
-4.4376664	18,624?	-0.07642895
-4.4376664	14-27?	-0.07642895
-4.2522335	Carl	-0.20140772
-4.4376664	Landry	-0.07642895
-4.4376664	(23)	-0.07642895
-4.2522335	Shane	-0.07642895
-4.4376664	Battier	-0.07642895
-4.2522335	(25)	-0.20140772
-3.467486	played?	-0.88083154
-4.4376664	32-19?	-0.07642895
-4.4376664	Mavericks	-0.07642895
-4.4376664	109–95	-0.07642895
-4.4376664	pepsi	-0.07642895
-4.4376664	19,155	-0.07642895
-4.4376664	5-8,	-0.07642895
-3.6134439	name?	-0.7425288
-4.4376664	6-8,	-0.07642895
-3.0496051	score?	-1.2865969
-4.2522335	Kevin	-0.07642895
-4.4376664	Durant	-0.07642895
-4.2522335	Green	-0.07642895
-4.0893774	(14)	-0.1556342
-4.4376664	russell	-0.07642895
-4.4376664	westbrook	-0.07642895
-4.0893774	(5)	-0.1556342
-4.4376664	nenad	-0.07642895
-4.4376664	krstic	-0.07642895
-4.4376664	toyota	-0.07642895
-4.4376664	15,095	-0.07642895
-3.8348963	attendance?	-0.5384088
-4.4376664	verizon	-0.07642895
-4.4376664	17,152	-0.07642895
-3.5591562	December	-0.08742742
-4.2522335	Carlos	-0.07642895
-4.4376664	Boozer	-0.07642895
-4.0893774	Deron	-0.3165601
-4.4376664	Williams	-0.07642892
-4.2522335	(13)	-0.07642895
-4.2522335	broadcast	-0.07642895
-4.2522335	Jason's	-0.20140772
-4.4376664	Rhod	-0.07642895
-4.4376664	Gilbert	-0.07642895
-4.4376664	Shappi	-0.07642895
-4.4376664	Khorsandi?	-0.07642895
-4.4376664	Sean's	-0.07642895
-4.4376664	Reginald	-0.07642895
-4.2522335	D.	-0.07642895
-4.4376664	Kelly	-0.07642895
-4.4376664	Osbourne?	-0.07642895
-4.4376664	locaiton	-0.07642895
-4.4376664	tampa,	-0.07642895
-4.4376664	fl	-0.07642895
-4.4376664	louisville?	-0.07642895
-4.0893774	central	-0.07642895
-4.4376664	connecticut?	-0.07642895
-4.4376664	channels	-0.07642895
-4.4376664	wxyzrstuvpq,	-0.07642895
-4.4376664	order?	-0.07642895
-4.4376664	soundfield	-0.07642895
-4.4376664	mixed-order,	-0.07642895
-4.2522335	channels?	-0.20140772
-4.4376664	wxyzuv,	-0.07642895
-4.4376664	"Truth	-0.07642895
-4.2522335	Be	-0.07642895
-4.4376664	Told"?	-0.07642895
-4.0893774	titles	-0.07642892
-4.4376664	1.10	-0.07642895
-4.4376664	1.22	-0.07642895
-4.4376664	Conway	-0.07642895
-4.4376664	Kagey?	-0.07642895
-4.4376664	episode/s	-0.07642895
-4.4376664	Gans	-0.07642895
-4.4376664	Register?	-0.07642895
-4.0893774	couple	-0.07642895
-4.4376664	295	-0.07642895
-4.4376664	anh	-0.07642895
-4.4376664	luda?	-0.07642895
-3.467486	happened	-0.22537485
-3.6134439	11?	-0.7425288
-4.4376664	2.50	-0.07642895
-4.4376664	millions)?	-0.07642895
-4.4376664	"dare	-0.07642895
-4.4376664	devil"	-0.07642895
-4.4376664	"poison	-0.07642895
-4.4376664	ivy"	-0.07642895
-4.4376664	1230	-0.07642895
-4.4376664	3185	-0.07642895
-4.4376664	713096-713119?	-0.07642895
-4.4376664	801-812	-0.07642895
-4.4376664	711871-711880?	-0.07642895
-4.4376664	713096-713119	-0.07642895
-4.4376664	713726-713735	-0.07642895
-4.4376664	Linroy	-0.07642895
-4.4376664	Bottoson's	-0.07642895
-4.4376664	victim?	-0.07642895
-4.4376664	dances	-0.07642895
-4.4376664	161?	-0.07642895
-4.4376664	1.85	-0.07642895
-3.6755004	m	-0.10446565
-4.4376664	demond	-0.07642895
-4.4376664	greene	-0.07642895
-3.8348963	born	-0.1433957
-3.8348963	1989	-0.180105
-4.4376664	2.11	-0.07642895
-4.4376664	steffen	-0.07642895
-4.4376664	hamann	-0.07642895
-4.2522335	"Do	-0.07642895
-4.4376664	believe	-0.07642895
-4.4376664	magic"	-0.07642895
-3.943758	time?	-0.44149882
-4.4376664	Gaviola?	-0.07642895
-4.4376664	10.50	-0.07642895
-4.4376664	9.63	-0.07642895
-4.4376664	US,	-0.07642895
-4.4376664	Laura	-0.07642895
-4.4376664	Innes?	-0.07642895
-4.4376664	eurobasket?	-0.07642895
-4.2522335	7.7	-0.07642895
-4.4376664	4.7	-0.07642895
-4.4376664	4.2	-0.07642895
-4.4376664	fiba	-0.07642895
-4.2522335	Bodine	-0.07642895
-4.0893774	3rd?	-0.3165601
-4.2522335	1987?	-0.20140772
-4.4376664	8.3?	-0.07642895
-4.4376664	07-08	-0.07642895
-4.4376664	gp/jgp	-0.07642895
-4.4376664	mao	-0.07642895
-4.4376664	asada	-0.07642895
-4.4376664	owners	-0.07642895
-4.0893774	side	-0.07642895
-4.4376664	indianapolis	-0.07642895
-4.4376664	stacks	-0.07642895
-4.4376664	1969	-0.07642895
-3.5109067	frequency	-0.3236362
-4.4376664	L34xx	-0.07642895
-4.2522335	brand	-0.07642895
-4.4376664	G6xxx?	-0.07642895
-4.0893774	maximum	-0.1142284
-4.2522335	memory	-0.07642895
-4.2522335	frequencies	-0.20140772
-4.4376664	2.93-3.2ghz?	-0.07642895
-4.4376664	I7-8xx?	-0.07642895
-4.4376664	cores	-0.07642895
-4.4376664	ddr3-1333	-0.07642895
-4.4376664	2.66-2.8ghz.	-0.07642895
-4.4376664	Pentium	-0.07642895
-4.4376664	processor	-0.07642895
-4.4376664	Oneida	-0.07642895
-4.2522335	Kerry	-0.07642895
-4.4376664	Bonneville	-0.07642895
-4.4376664	Bush?	-0.07642895
-4.4376664	462	-0.07642895
-4.4376664	way?	-0.07642895
-4.4376664	Busg	-0.07642895
-4.4376664	37.6%?	-0.07642895
-4.4376664	3:38:45	-0.07642895
-4.4376664	3:34:14	-0.07642895
-4.4376664	11th,	-0.07642895
-4.4376664	american	-0.07642895
-4.4376664	denis	-0.07642895
-4.4376664	nizhegorodov	-0.07642895
-4.4376664	rus	-0.07642895
-4.4376664	3:41:20	-0.07642895
-4.4376664	cheboksary	-0.07642895
-4.4376664	russia?	-0.07642895
-4.2522335	table	-0.07642895
-4.4376664	Blackburn	-0.07642895
-4.4376664	Rovers?	-0.07642895
-4.0893774	appointment	-0.1556342
-4.2522335	incoming	-0.20140772
-4.4376664	Roy	-0.07642895
-4.4376664	Hodgson	-0.07642895
-4.4376664	Liverpool?	-0.07642895
-4.2522335	Kenny	-0.07642895
-4.4376664	Dalglish?	-0.07642895
-4.4376664	vacancy	-0.07642892
-4.0893774	Liverpool	-0.07642895
-4.4376664	pre-season?	-0.07642895
-3.8348963	steve	-0.07642895
-4.4376664	mcclaren	-0.07642895
-4.4376664	replacer	-0.07642895
-4.4376664	manner	-0.07642895
-4.4376664	departure?	-0.07642895
-4.4376664	1.	-0.07642895
-4.2522335	fc	-0.07642895
-4.4376664	köln	-0.07642895
-4.4376664	appointment?	-0.07642895
-4.2522335	hale	-0.07642895
-4.4376664	irwin	-0.07642895
-4.4376664	victory?	-0.07642895
-4.4376664	patriots?	-0.07642895
-3.943758	1957?	-0.44149882
-4.0893774	institution	-0.07642895
-4.4376664	ohio	-0.07642895
-4.4376664	christian	-0.07642895
-4.4376664	university?	-0.07642895
-4.4376664	circleville,	-0.07642895
-4.4376664	ohio?	-0.07642895
-4.4376664	eagles?	-0.07642895
-4.4376664	5.09	-0.07642895
-4.4376664	(both	-0.07642895
-3.8348963	Live	-0.17336896
-4.4376664	SD	-0.07642895
-4.4376664	types)	-0.07642895
-4.4376664	(combined	-0.07642895
-4.4376664	SD)	-0.07642895
-3.3584359	8?	-0.98556685
-4.4376664	fourth	-0.07642895
-4.4376664	(4	-0.07642895
-4.4376664	1-04)	-0.07642895
-4.4376664	"18–49	-0.07642895
-4.4376664	Rating	-0.07642895
-4.4376664	Live+SD"	-0.07642895
-4.2522335	ratings	-0.07642895
-4.4376664	"Live+7"	-0.07642895
-4.4376664	ratings,	-0.07642895
-4.4376664	respectively,	-0.07642895
-4.4376664	3.69	-0.07642895
-4.4376664	(Live	-0.07642895
-4.2522335	types	-0.07642895
-4.4376664	combined)	-0.07642895
-4.4376664	Cecil	-0.07642895
-4.4376664	Kellaway?	-0.07642895
-4.4376664	"For	-0.07642895
-4.2522335	Whom	-0.07642895
-4.4376664	Bell	-0.07642895
-4.4376664	Tolls"?	-0.07642895
-4.4376664	Diane	-0.07642895
-4.4376664	Keaton	-0.07642895
-4.4376664	actress?	-0.07642895
-4.2522335	Beatty	-0.07642892
-4.4376664	40th	-0.07642895
-4.4376664	Oscars?	-0.07642895
-3.7479262	Charles	-0.1142284
-4.4376664	Bickford	-0.07642895
-4.2522335	actor?	-0.20140772
-4.4376664	1943?	-0.07642895
-4.0893774	Sydney	-0.07642892
-4.4376664	334000	-0.07642895
-3.8348963	Melbourne?	-0.5384088
-4.2522335	Adelaide	-0.07642895
-3.8348963	Week	-0.07642895
-4.4376664	Bray	-0.07642895
-4.4376664	"Company	-0.07642895
-4.4376664	Man"	-0.07642895
-4.4376664	"Point	-0.07642895
-4.4376664	Blank"?	-0.07642895
-4.4376664	cable	-0.07642895
-4.2522335	bbc	-0.20140772
-4.2522335	three	-0.07642895
-4.2522335	weekly	-0.07642895
-4.2522335	n/a?	-0.20140772
-3.467486	december	-0.07642895
-4.4376664	difficulty	-0.07642895
-4.4376664	athens	-0.07642895
-3.943758	circuit?	-0.44149882
-4.2522335	setting	-0.07642895
-4.2522335	hard	-0.07642892
-4.4376664	difficulty?	-0.07642895
-4.4376664	conditions	-0.07642895
-4.2522335	11th	-0.07642895
-4.4376664	f/laps?	-0.07642895
-4.4376664	cuenca	-0.07642895
-3.6134439	2006	-0.12122987
-4.4376664	quevedo	-0.07642895
-4.4376664	times.	-0.07642895
-4.2522335	active	-0.07642895
-4.4376664	attaquant.	-0.07642895
-4.0893774	mls	-0.24299519
-4.4376664	6th,	-0.07642895
-4.4376664	(9-11-10)?	-0.07642895
-4.0893774	concacaf	-0.1556342
-4.4376664	quarter-finals	-0.07642895
-4.4376664	(09-10)?	-0.07642895
-4.4376664	lamar	-0.07642895
-4.4376664	hunt	-0.07642895
-4.4376664	(11-16-5)?	-0.07642895
-3.8348963	14?	-0.5384088
-4.4376664	2.48	-0.07642895
-4.4376664	million,	-0.07642895
-4.4376664	2.08,	-0.07642895
-4.4376664	profession	-0.07642895
-4.0893774	celebrity	-0.07642895
-3.943758	featured	-0.13443807
-4.4376664	(2)	-0.07642895
-4.4376664	alicia	-0.07642895
-4.4376664	molik	-0.07642895
-3.7479262	partner	-0.1142284
-4.4376664	outcome?	-0.07642895
-4.2522335	races?	-0.20140772
-4.4376664	dropped	-0.07642895
-4.4376664	congi	-0.07642895
-4.0893774	core	-0.1556342
-4.4376664	Redwood	-0.07642895
-4.4376664	clock(mhz)	-0.07642895
-4.4376664	bus	-0.07642895
-4.4376664	texture	-0.07642895
-4.4376664	fillrate?	-0.07642895
-4.4376664	Radeon	-0.07642895
-4.2522335	HD	-0.07642895
-4.4376664	6650m?	-0.07642895
-4.4376664	Smoky	-0.07642895
-4.0893774	Lake	-0.07642895
-4.4376664	km2	-0.07642895
-4.4376664	Fishing	-0.07642895
-4.2522335	Lake?	-0.20140772
-4.0893774	Buffalo	-0.07642895
-4.4376664	superintendent(s)	-0.07642895
-4.4376664	middle	-0.07642895
-4.4376664	alan	-0.07642895
-4.4376664	degroote,	-0.07642895
-4.4376664	gorham	-0.07642895
-4.4376664	lahue,	-0.07642895
-4.4376664	2006-2007?	-0.07642895
-4.4376664	2010-2011?	-0.07642895
-4.4376664	principals	-0.07642895
-4.4376664	2000-2001?	-0.07642895
-4.4376664	principal(s)	-0.07642895
-4.4376664	Cavendish	-0.07642895
-3.4280143	wins	-0.14591883
-4.2522335	sprint	-0.07642895
-4.2522335	Maarten	-0.20140772
-4.4376664	Tjallingii	-0.07642895
-4.4376664	courageous,	-0.07642895
-4.2522335	youth	-0.07642895
-4.4376664	mountains	-0.07642892
-4.4376664	corageous?	-0.07642895
-4.2522335	Brett	-0.07642895
-4.4376664	Lancaster	-0.07642895
-4.2522335	classification,	-0.07642895
-4.4376664	calssification?	-0.07642895
-4.4376664	Sagan	-0.07642895
-4.2522335	Thomas	-0.07642895
-4.4376664	Rabou	-0.07642895
-4.4376664	corageous,	-0.07642895
-4.4376664	Yaroslav	-0.07642895
-4.4376664	Popovych	-0.07642895
-4.4376664	Ryan	-0.07642895
-4.4376664	Rogers	-0.07642895
-4.4376664	co2	-0.07642895
-4.4376664	emissions	-0.07642895
-4.4376664	thousands	-0.07642895
-4.4376664	metric	-0.07642895
-4.4376664	tons)	-0.07642895
-4.4376664	1811,	-0.07642895
-4.2522335	buffalo	-0.07642895
-4.4376664	bills	-0.07642895
-4.2522335	bruce	-0.07642895
-4.4376664	baldwin's	-0.07642895
-4.2522335	#?	-0.20140772
-3.943758	green	-0.07642895
-4.4376664	bay	-0.07642895
-4.4376664	packers	-0.07642895
-4.0893774	pick?	-0.3165601
-4.4376664	Mame	-0.07642895
-4.4376664	reg	-0.07642895
-4.0893774	2001	-0.07642895
-4.4376664	usisl	-0.07642895
-4.4376664	select	-0.07642895
-4.4376664	earn	-0.07642895
-3.5591562	31	-0.07642895
-4.4376664	Labonte	-0.07642895
-4.0893774	much	-0.108622886
-4.4376664	Burton	-0.07642895
-4.4376664	Brack	-0.07642895
-4.2522335	special	-0.1556342
-3.943758	version	-0.1142284
-4.0893774	james	-0.07642892
-4.4376664	baskett?	-0.07642895
-4.4376664	stewart?	-0.07642895
-4.2522335	buena	-0.20140772
-4.4376664	vista	-0.07642895
-4.4376664	daisuke	-0.07642895
-4.4376664	gouri?	-0.07642895
-3.8348963	character	-0.108622886
-4.4376664	koichi	-0.07642895
-4.4376664	sakaguchi?	-0.07642895
-4.4376664	edidtion	-0.07642895
-4.4376664	Mateus	-0.07642895
-4.4376664	Rocha	-0.07642895
-4.4376664	Raquel	-0.07642895
-4.4376664	Pacheco	-0.07642895
-4.2522335	Karina	-0.07642895
-4.4376664	Bacchi?	-0.07642895
-4.4376664	branding	-0.07642895
-3.943758	channel	-0.12219975
-4.4376664	tv-62.	-0.07642895
-4.4376664	estrella	-0.07642895
-4.2522335	provide	-0.20140772
-4.4376664	coverage	-0.07642895
-3.7479262	power	-0.12759647
-4.4376664	output	-0.07642892
-4.4376664	Phoenix.	-0.07642895
-4.4376664	krca-tv.	-0.07642895
-4.4376664	tv-29?	-0.07642895
-4.4376664	kpnz-tv	-0.07642895
-4.4376664	5179	-0.07642895
-4.4376664	(gw×h)	-0.07642895
-4.2522335	renewable	-0.1556342
-4.4376664	energy	-0.07642895
-4.2522335	without	-0.20140772
-4.4376664	hydrogen	-0.07642895
-4.4376664	power?wha	-0.07642895
-4.4376664	electricity	-0.07642895
-4.4376664	83.4?	-0.07642895
-4.4376664	equal	-0.07642895
-4.4376664	9667	-0.07642895
-4.4376664	(gw×h)?	-0.07642895
-4.4376664	Dakota?	-0.07642895
-4.4376664	21-22	-0.07642895
-3.943758	1994?	-0.44149882
-4.4376664	27-29	-0.07642895
-4.4376664	whern	-0.07642895
-4.4376664	15-16	-0.07642895
-4.4376664	133?	-0.07642895
-4.4376664	10-11	-0.07642895
-3.5591562	10,	-0.09663806
-4.4376664	149?	-0.07642895
-4.4376664	151?	-0.07642895
-4.4376664	outputs	-0.07642895
-4.2522335	2x	-0.07642895
-3.943758	pro	-0.13443807
-4.4376664	bias,	-0.07642895
-4.4376664	rca	-0.07642895
-4.4376664	loop	-0.07642895
-3.8348963	notes	-0.12219975
-4.4376664	vacuum	-0.07642895
-4.4376664	tube	-0.07642895
-4.4376664	sang	-0.07642895
-4.4376664	Amar	-0.07642895
-4.4376664	Deep?	-0.07642895
-4.4376664	Vijayalaxmi	-0.07642895
-4.4376664	Co-star	-0.07642895
-4.4376664	Shakeel	-0.07642895
-4.4376664	Badayuni	-0.07642895
-4.2522335	write	-0.07642895
-4.4376664	lyrics?	-0.07642895
-4.4376664	Bela	-0.07642895
-4.4376664	Bose	-0.07642895
-4.4376664	co-star	-0.07642895
-4.4376664	Jeevankala	-0.07642895
-4.4376664	co-starred?	-0.07642895
-4.2522335	"you	-0.20140772
-4.4376664	gonna	-0.07642895
-3.8348963	do	-0.07642895
-4.2522335	rest	-0.07642895
-4.4376664	life?"	-0.07642895
-4.4376664	"Powerless"?	-0.07642895
-4.2522335	Jack	-0.07642895
